{"layers": [784, 30, 10], "learning_rate": 3.0, "weights": [[[-0.10806055284224307, 0.02412608932154302, -0.4909015498123835, -0.6287862963697435, -0.8693936928865461, 2.5121106865851597, -0.4254762963275853, 2.4681944653481547, -0.1882761939270434, 2.1054548006244573, -0.18466400619798085, -1.212547278753891, 0.13716595806283077, -0.4262207327564145, 0.6388282931170939, -0.09150674840422361, 0.02880904107163942, 1.653655389736642, -1.0738668926217025, -0.0007533578551641732, -1.8640617716704286, -0.14872850860790074, -0.22196762782564575, -0.9836572786451099, -1.3545900672269648, 1.5984267190419363, 0.5017822004372161, 0.10142388238308545, -0.7276000891890083, 0.2540954720457723, 1.011036771709502, 2.5903219781549778, 0.2927440004210077, -1.2068421475076467, -0.2445998650713983, -2.4249081759375866, 0.5839654373853732, -1.5342033118988911, 1.3572048023664403, 0.8388015303350417, 0.20762252041814433, 1.2597072493372368, 0.6259322124680665, 1.1199609190573108, -2.0628627244777693, -0.35583898951026943, 0.27489902761270424, -0.16359908884933358, 0.4731770738613535, 1.4318198333731684, -1.0527489081610906, -1.3279786929849189, 1.983827206268427, -0.784893849777844, -0.020778727065727892, -0.8099169283393335, 0.25674269670346167, -0.8405219175806775, 0.9405275945890391, 0.6838120537792851, -1.4260684184415497, 1.515576688460988, 0.14006362783869175, -0.19084165222853494, 0.03786299364763057, -0.0805572912013921, -0.03953408135383385, 0.2203578164681078, -0.9991631143392037, 0.748334061400765, -0.9873100434831549, -2.866164895043027, 0.00024217191942950113, -1.270513881462586, 0.18217415242769738, 0.10012390721076303, 0.39568495011915567, -1.0969236071141133, -0.17618301050212182, 0.8598568170864931, -1.4792731072218785, -0.4058330580982, -1.4911046896273783, 0.6645161514533441, -1.4569783189125445, 0.5250571450300145, -0.134112017150248, 0.004484230546424501, 2.2576509886035416, -0.8053542923907896, 1.3036553287090102, -0.4566172367327808, 0.8080767511785601, -0.13286519512684553, 2.3256339274299846, 1.395057399465967, -1.0560695130883435, 0.6510056613664964, 0.3888482873437067, -0.17543483297787443, -0.6822559923390257, -0.5839101047827362, -0.42986627522316984, -1.545421747904356, -2.612956149336998, -1.9628846963579833, -0.04968974313854329, -0.711935961898709, 0.14893876821906374, -0.3935489665170508, 0.7635910914127786, -1.5743699034268528, 0.41224437287979304, -0.09463080922888102, -1.4661754902631756, -1.169764961906931, -1.7174417856548314, 0.3194414653965102, -1.2416120087168303, -1.2083275488919305, 0.13706021689531386, 1.1819343364170791, -0.32314690613389957, -0.3480494941550092, -0.8956886310458884, 1.1059457780981727, -0.059189717362730244, -1.712265156855391, 1.008677420241787, -1.4109473168392113, 1.0372312477996204, -0.8858957440784679, -0.005113646916713508, -0.8206614494243709, 0.7106703342607636, -1.1896584955442064, 1.4020256299600484, -1.1733321648994355, 1.7759203131983565, -1.123043182030384, -0.12045475490269493, -1.4579156260905406, 0.9734362667799636, 1.7393099619947268, -0.262031849925696, 0.5277027812248448, -0.7854081535797189, 0.17453450235775475, 0.21997563657113237, 1.9242181853056808, -0.10249121864882908, 0.5925686435187015, 0.9347557193926694, 1.2300764240251982, -0.06992486879183313, -0.1641267494102658, 0.35492840050747715, -0.6890006560394021, -0.8815879482475875, -0.4083960203823949, -1.6670362164520385, -0.6849369604432539, -0.9618071629637481, -0.5321810237171491, -0.22012234881165438, -0.5226593787557333, 1.0098429397347983, -1.5226056943724238, 0.18726202640302914, -0.35357841803099443, 0.6442631786120323, 0.419373351635222, -2.1908214704083098, 1.6746675846402175, -0.3151345147415969, -0.7692822104288218, 0.5968540523132769, -1.1485747476087524, 1.4421973655791185, -1.0315021553550763, 0.060451164777475044, 0.689729111282229, 0.8987772154545508, 0.23449451414506609, 0.5331059714122437, -0.041093464504156206, 1.4170658124449016, -0.24775770469394445, 1.1486439651217601, -0.3682187266042009, -1.072523553166789, -0.11956377458544129, 0.3911238897482146, -0.5879599246927801, -0.16152613749705938, -1.5612370205796673, 2.2338286583558826, 1.3352347808297063, 0.2387967569760698, -0.15824372255679592, -0.9016954768858796, -1.691625943621114, -0.6270330362306393, -0.2403748265417743, 0.855802158503264, 0.31376737905553237, 0.6669002990961136, 0.9889960758190379, -0.5892808995133075, 0.2812258536527761, 1.4345423542657307, 0.49454002208817394, -1.0752057639602546, 0.29583242845257995, 0.19760193670490614, 0.6029629277879673, -0.14734932451421484, 0.1632686135411367, -0.1783435420574047, -0.4934717800852879, -1.007588897006265, 0.4564236699280096, 1.6211858512711368, 0.30150381786722436, 0.6996793129914199, -0.28053746915182337, 0.006737650521119594, -2.492216143612096, 0.004356924532254489, -1.2290124290038316, 1.5345181521818925, 0.6769754481673279, 1.012713443814987, -0.46139211613019754, 0.15357583190537952, -0.21490890432367474, 0.7662916254524362, -1.0131435631944814, 2.0968053063811634, 0.21830207783286756, 1.342059191782704, 2.102753486209305, -0.3336991566305612, 0.13213827549370447, -0.9006478925794033, 0.14914909192789966, 1.304127701674274, 1.2886082493459503, 1.0218852645525447, -0.35148106101168475, -1.5532611953419868, -1.6323217402792116, 0.5616573200299011, 2.107902480579772, -1.8222894770013542, 0.1479437711443688, 0.22729534370587556, 0.31015022209579984, -1.214380391984861, 0.3668053802839805, 0.5221685251890557, 0.6622355330275059, 2.1745982935192893, 0.9404275266828338, 1.2666100088196546, 0.31181187807094046, 0.9227728441554273, 0.9493871270748314, -0.42622001917493973, 0.12216329401457114, 0.14668789085139453, 1.1234912405958148, -0.2162951862689211, -0.20190409132399945, -0.09856626048123651, -2.234109103507081, 0.671578774896078, -0.9149395696863787, -0.5117776997058605, 0.5566872996153858, 1.4363330253558422, 1.293302361249517, 0.7445261601649173, 0.1700949972574781, -0.4927018393153586, 1.6063242338895032, 0.13207022223248807, 0.5607330511239311, -0.8531157258125955, -1.1244661233949538, -0.7856542786915828, -0.7674022327766977, 1.6239590214270614, -1.1769182760980559, -1.5082290834434469, 0.4785029899571349, 0.2130978566836397, -0.6404398286670134, -0.22707577543387455, -0.5238746325662298, 1.0934172451363238, -0.45157293561849987, -0.845605234363352, -0.6123497322906746, -0.7324593969221673, -0.1084724785701318, 0.43411793587300906, 0.5815062665256369, -0.041771129880350796, -1.0732864372396802, -0.44967545864003894, -0.027054068057206514, -1.6023786706086995, 0.24798536429789542, -0.929679334116, -1.1061654810108532, 1.2742820146316063, -1.8960477225719201, 0.22333443067014352, -0.7891234381202687, 0.33571038623077937, -1.962207395441225, -1.5962831532811503, -0.9474259315731474, 1.3424883179005904, -0.9332949282199177, -0.8042821453791619, 0.1769177774150423, -1.9444567932364345, -1.231628769948353, 0.7945698274303883, 1.585727001635973, 0.8267789200631412, -1.352337756020258, 0.31261629885974457, 0.3006752703603925, -2.0995462959615376, -0.8650875936855346, -1.0641094921833476, 0.20217486145199998, -2.290901167548759, -2.565371816914989, 0.1508660636758492, -2.884124429235172, 0.21407451488990933, -2.671769033482988, -1.1461672433183987, -2.316706507614679, -3.866136554326295, -2.369992720615747, -3.2597779639067035, -2.17942432207665, -1.283330848978262, -0.4977449428155521, -0.17825778410625467, 0.8730385163499649, -0.6021201246611902, -0.8075641183028927, -0.4908456617925083, -0.6287587089931365, -1.4444778379817287, 0.6007131705749787, -0.6825829081231848, -0.5375792526797412, -0.34963885358231755, -0.5461424775265891, -1.0891825622376445, 0.681379052318294, -0.7731338634969335, -1.8542638828030389, -1.9274558694723092, -1.494014328640321, -1.122470783506858, -2.382448632925414, -2.1385206587448367, -3.1205746555627987, -1.4128670547558715, -0.8713998231998844, -1.4171861217450616, 0.13665631505666193, -1.0664936551466997, -1.3397937351680613, 0.22576256127792882, -1.98183797071087, 0.037974234928123345, -0.8304217405870477, 0.20819660988210578, 0.006631676000848397, 0.866449174880699, 0.5322430004055374, 1.0423139499552265, 1.026549732363582, 0.44351937175887995, 1.2375908425657318, 0.33235931408134367, -0.8720708828381633, -0.3931648176272924, -0.8883250713228668, 0.15565768540766498, -2.988029439261988, -2.339519640371238, 0.11712125162595124, -1.8036750854837063, -0.3605339575123041, 0.1271930278544929, 0.27087608689391557, -0.6194166985835465, -1.4531310076394521, -0.32787271674514246, 0.7706414593739211, -2.2270796933056696, -1.2367646677587867, -0.8999132560247368, -1.409285673045487, 0.6997843995332157, -0.20685272928938334, -1.1507181339355097, -0.1223304294172207, 0.09038419557632964, 0.0905849190404386, 2.0396192778067004, -0.9838676424390749, 1.5226107278461338, -0.9030649114581044, 0.6080460774389662, -1.3135681621318256, -0.6949166031371709, -2.512809143909065, -2.000172928037352, -0.31638242970171565, 0.4558803199622189, 0.5916410667728265, 0.1589845406547066, 0.43367874043410637, 0.15494587791549622, -0.45651076285381464, -0.23746039734822189, -1.4501883810269813, -0.3011934306647435, -0.295485867073912, 0.5499921122527104, 0.27828345764300205, -0.08673419454616653, -0.9139332878367992, 0.021657086198933768, 0.9434459857329832, 2.0100161514274153, 1.297509562075127, -0.8550994545662655, -0.04994138630817037, -0.4861593998632914, -0.11046180070037787, 1.0308261664491072, -0.9236911779965244, 0.5052723995788054, 1.2855874675437933, 0.8612645424712766, 0.6640998235701634, 2.3687037021395763, 1.110849156788474, 0.7984220899971562, -1.534474877921758, -0.22906873234653066, -0.031471837922540845, 0.8634756076895613, -0.29704561514464306, -1.9480172679570216, -0.9672811606404699, 0.13039622883355434, 1.057455639143174, -0.30396617367626944, 0.7844000957228928, -0.12945465798822417, -0.36291132089481426, 0.1403338536730772, -0.3808067300385953, -0.033201211333780935, -1.4241762944212653, -1.7256601525392392, 0.7650503123199428, -1.1557505641567014, 1.3997645749760026, -1.1067190264322608, 1.1341481202524524, -0.4762306321659698, 0.47620859689437306, -0.8208827932731899, 0.31250812780076825, -0.2506049501279212, 0.7289085650511361, -0.6493670873214313, -0.09683891655035572, -0.26442404605581327, -0.622539558440705, 1.2880458835407715, -0.31928524196707875, -0.7538778354384417, 0.6703406730559404, 0.16695122579987742, -0.35121969917828866, 2.8604840505343136, -0.18583143587673223, 0.3924132381743161, 0.020554612776555407, -0.34716889608745327, -1.4261991340909443, 0.7832940525775469, 0.20875537753474424, -1.5303508876913958, 0.009283932545034415, 0.1856663075592066, 0.9696579426052474, 0.8516523258501824, 1.6060917267466042, -0.2857731363984276, 1.5522055158368897, -0.39766359010696406, 1.2633503777312245, -0.8002516618839253, -0.5205215637166136, -0.06608456892240447, 0.6190948725796932, 0.14082085783204668, -0.1556317863251875, -0.05039838340790571, 0.6976330809723289, -0.6331062425978314, 0.5430202327786131, 0.5424556948421837, 1.6094142500244661, 0.5316366161716631, 1.158727222364353, 0.7860462148193361, 2.132605136783616, 0.08677213088645436, 0.38036861742840644, -0.056324399096979914, -0.7083522408786929, 1.538565544458021, -0.7687195189469721, 0.6806207220634414, 0.11187005939188317, 0.011850248482781938, 1.8538086884549694, -0.15582523064449225, 0.23978003479048524, 2.2100558201364993, -0.2728417880848501, 0.2382745735848336, -0.7486885609216684, -0.44674657400984963, 0.7478127103736116, -0.812918306201528, 1.7910629467808565, 0.0818536206959756, 1.5810960652514812, -0.6337194001105331, 1.9010726434788092, -1.168846260378542, 0.7822166768272455, -1.0388611659992957, 1.8376684248570494, 1.4481242575686653, -2.0021250340422614, 0.673416721681594, -1.119674413219696, 0.020559442742191163, 0.38026522289936, 1.4791636352275053, 1.5369603047680531, 1.0435231808350514, -0.727354973922872, 1.4669174484795746, -0.34596263261839083, 0.36679670129527997, 1.2265374357994936, 1.298556739052396, -0.39848575487491666, -0.7536724040426462, 0.24071805835361812, -0.41247092115252665, -0.9240258798178669, 0.44416855667849986, -0.1297025146169227, 0.4932990516470943, -0.36063198633885907, -0.6218867799119303, -0.056491824172846684, 0.1565082488788582, 0.1830828049388374, -1.0013257066354202, 0.7808006227508419, 1.1333162145577156, 0.1993064265606911, 0.9350279053686406, -0.6204019681849817, -0.3218278236321875, 0.3549395922005114, -0.08296911243207064, -0.0694523167528262, 1.0015719500093594, -1.6813216103487727, -0.1283356840060914, -0.06075826382098274, -0.9519050139131018, -0.47413553582755624, 0.6655008092313685, 1.1983130974205025, -0.9103338516474458, 0.4523321186450178, 1.4099121518787756, -0.33063757848177944, 0.09858380657607052, -0.7843472424985403, 0.4108401274876258, 0.5452493167025401, 1.6384696665441207, -2.3061074820510012, 0.06358239632957817, 0.36212756641743593, 0.6586821605812917, 0.9932094983936538, -2.7913356599532295, 1.4735396333874093, -0.8961381777757299, -0.4056777316841472, 0.502714299248273, -0.4860550462855013, 1.2818640120207956, 0.6262888868546983, -0.17872034230544692, -0.5098600673395898, 0.18882395035817262, 0.7945596409051005, 1.8958386884879073, 0.19289998445915174, 0.051202673718237474, 1.6718893740964285, 1.3524881964782185, 0.717496077887959, -1.9367462623582794, -1.7870348302783554, 0.833845531043067, 1.5258120375639785, 1.2381263061152898, -2.900574864343287, -1.1455833219566445, 0.16726405485408313, -0.0012987311913121517, 0.20031527113384287, 1.171523343359807, 1.3355189302712749, 0.10837808631384703, 0.3330923549430266, -1.2139593073170003, 0.48864104666589336, -0.29514447019321316, 0.7401118106010106, -1.0782767354902885, 0.6918146145366015, -1.1598113366975935, -1.210566346152663, 0.460962970595306, -0.4551873869590193, 0.4921741073438464, 0.8404071142120471, -1.2193651439631645, 1.8118449805632837, -2.2724471972549387, 0.28335950239906205, -0.5389752836135613, -0.19866009055679848, 1.9863783391527636, 0.6551069610763095, 0.06380713069088391, 0.12872389292163286, -0.5106649894647459, 1.0954613360323386, -0.36857597412765986, 0.6171757139528115, -0.927463414801281, -1.08052472681429, 1.1029075317821921, 1.3000509622199836, 0.27900706824500915, 0.6833651033445799, -1.4770777407780866, 0.25129897417309616, -0.4081778439160725, 0.3112458031355236, 1.3957438819782935, -1.8290746107029625, -0.03195329360525559, -0.5175289608628804, -1.141137874738295, -0.7350680827487067, -0.3664641220189465, 0.7393085175610555, 0.5232367215545172, -0.4858036478219593, 0.037879452434240186, 0.45058768524392206, 1.4045308207069622, 0.618492569124459, -0.2131175787297018, 0.809578907628489, 1.5655700106215742, -0.4507600722295281, -0.7262314177959314, 0.8339748704879375, -0.7901935156196195, 0.687246821917763, 0.8186123877180601, 2.0695055275763012, 1.084874614583021, 0.9436536271460952, -0.6173419669290809, -1.2901747908680465, 2.3790436362673146, -0.9205919786264933, 1.6217826281873158, -0.949165726985755, 0.5819275526432007, -1.9904252695060896, -1.6037413550180717, -0.9744978842385174, 1.57218685639059, 0.6024694298760004, 1.1308800067911218, 1.403065227213288, -1.5589955835905807, 0.8558756706934604, -1.85465487818904, -0.17647098452408677, 0.3273357185141232, 0.7688075010235672, -0.43249093053191007, 0.8626445547184698, -1.0610522252960184, 1.1991128413502083, -0.7269861943138818, -0.42270022539096996, 0.3037349365857617, 2.207533383395254, 0.7208054357784647, -0.909653056092633, 0.3106410406205386, -1.0507566451089745, -1.5875014276896773, 0.8123670000767168, -0.1354481517975809, 0.12768798953220134, 0.6878228059800976, 0.40264853072031775, 1.3353000614001571, 0.6895933955312272, -0.6490840823862843, 1.1445094100698698, 0.40639495187057956, -1.4647574094828737, -1.1437313018933895, -0.5997166647779367, 0.4479390513648496, -1.1874352937585821, 2.923873001153609, -0.5949574753740349, -0.8349636467676034, 0.46164847595745473, -0.5142553643972863, 0.07339770894138666, 0.161378449980763, -0.004499139122928113, 0.8568245234302666, 0.38937459769860977, 0.06147440205068025, 0.020666371768324927, -0.08040761056751332, 0.025492311300378493, -0.3982120514622318, -1.0068679420342093, 1.6836209343872182, 0.17635239127383387, -0.6900045108064121, -0.24815001278345988], [-0.9795235365679577, 0.3502464703760264, 2.0022485795710354, -0.8693732909367988, 0.23302711633734308, 2.493563810945033, 0.1679563459756692, -0.1749754746135467, 0.4541490022475534, -0.13884447923590904, 2.37057677495314, -0.945458390183835, -0.30555314733077654, -0.7316689165214415, 0.03740309735516377, 0.29115176751910055, -1.0024445601215173, -0.24299504408737585, -0.5786006361702636, -0.5745305004173564, -0.7669195572552326, 1.6387775002246896, -0.4644131913419298, 0.0671817474873296, 1.0990691460252444, 0.27766477029433095, -0.8701047296336469, -0.5440747000933991, -0.7399842122568075, 0.2842204935215135, 0.5974256535941241, 0.12394322825337706, 0.003926399221581906, 0.0019092933400537172, 0.4822882537863972, -0.14539848952992468, -0.40147216402138564, -1.0652540847083012, -0.18479190280451913, 0.15998367570149558, 0.1585063250995887, 0.7854602882561983, -1.7772562198602768, -0.5479219730162884, -0.7992295003718974, 0.25031988917284137, -1.3554044529162934, 0.5185933682416349, -0.9472627923672063, 0.08688357988111474, -1.221210870655403, 1.0560033248767449, -1.147610884325116, -0.003302684035068267, -0.19798231853052298, -2.134153833052832, 1.558853526188317, 1.3302614637007866, 1.2758717801306603, -1.024297400036019, 0.23890781480532397, 1.55889127286677, 0.6757603739372308, -1.9351547726895144, -0.5712146294745339, 0.990442987169255, -0.28772591761501476, -0.9608255377007763, 0.6731730024977666, 0.8169311032625979, -1.2040667749797211, -0.4981602319270241, 0.08177616485191652, -1.0765088560891458, -0.5663887767339217, 1.3114190363460079, 1.8341018510608509, 1.7018692952157353, -0.8668912098541239, 1.3440598330151763, -0.8860143170853642, 0.11370402707005574, -0.38642525010555234, 0.10464117563545833, -0.06513810926540488, 0.8483391953753697, 0.16570238324302375, 0.1347401164155434, -2.249220269253954, -0.6577840387301349, 0.08693243739252458, 0.18822496734139568, -0.13164126630042225, -0.5464861068315358, -0.5225319753935136, 0.854950557644152, -1.6870748572886314, -1.1496243890223048, -0.318616479810682, -0.44431357013469686, -1.110086603611573, -0.11127036408992488, 0.4245672909673245, -0.023849860946054836, 1.1414847488822812, 0.7693343477992525, -0.8950371391044946, -2.3729140681082126, 1.4702086832441494, -0.29556158085234685, -0.9287691853860505, -0.8257732469578537, -1.461125784354484, 0.058602087431228925, 1.3432121520566493, 0.6093152901370505, -0.600781583149578, -0.5990224287955834, 1.1381675607149395, 0.01686098316716415, 0.08007207335152784, -0.7178427736263674, 0.603150986759888, -1.842846859766285, -1.182499209705, -2.3741660551921147, -1.2172646459465393, -1.3861110635479437, 0.20937011074033804, 0.2712899731729685, 0.33504254903739195, 1.4660648742449138, -0.33179776624122487, 0.153785620560503, 1.5708691606037695, -1.296007143331767, -0.8341369516175505, 1.4941399119648062, 0.22854878839480236, 0.6864283076728924, 0.3539397560371692, -1.7206958060894595, 0.6165405571284053, -0.22225278469901197, -1.7658326824606676, -1.800285287860723, -0.6474195352837971, -1.2814133666846992, 0.6620216552537473, 0.7297593703301147, -0.5190700446418369, -1.075209518877924, 1.284797190753987, -0.600682152001528, 1.1103937196480402, -0.22277868659672978, -2.172380067216527, 0.46914194947091964, 0.9837967213446802, -0.5501135243577578, -0.26812026391240074, -1.4642284432798014, 0.04675233788998278, 0.30234586909345434, 0.7223065717093154, 0.11436755566800812, 1.295315983964507, 0.761987996248085, 0.45798579647995563, -0.9083790683060655, -0.59759874577808, 1.328673206198777, 1.6309695589684026, -0.11996855399286158, -0.2773031408441585, -0.30826831628653517, -0.7863043330517112, 0.46704758688641257, -1.060683420467699, 0.3836007656789721, -0.6242108306022119, -0.30606740773797464, -1.2408701535590858, 1.5953404230047652, -0.13707911873579584, -0.6948653568268366, -0.6313321589259449, -0.3904824841505844, 1.0280181968077728, 0.18860924083475528, 1.4785682143548524, -1.3134154998084453, 0.4485109832297789, -0.5582198080042265, 0.7129427065086087, 1.309985498466687, -0.061808131486666036, 0.28170374966074174, -0.25486839636076675, 0.2958539392957564, -0.24322431625536328, -0.5116250360223916, -0.5889305383500836, -0.6401180736103773, 0.07610430616056084, -0.8628529832112183, -1.1173195800022317, -1.0049754644162696, -0.584645611255447, -0.7808946432199717, 0.2213308481851388, -0.03163334395617915, 0.16543973227365724, 0.5256389364540538, 0.4243754865325987, -0.8263530619107358, 0.02611000185248997, 0.15576238334491424, 2.4138751506352607, 0.6585818793432642, 0.17739102266535464, 0.7529066284253371, 3.5263189700780995, -1.1011072585937751, -0.4089744114494951, -0.2277915795173047, 0.18072145739722642, 0.489241504821884, 0.03146598450701061, 0.1819555211650984, -0.2942819221365767, 0.19469292374999697, 0.6568232153399065, 0.6590827255399427, -0.7161725505628183, 0.10629934386774408, 0.8798996503079699, 0.1415727152540898, -0.7712337987595042, 0.12374341308308788, 0.8662515998547275, -0.43860332509627614, 1.4878407336046386, -0.13803379656964818, -0.47488192030657034, -0.2543874956697155, 0.3605201523030139, 1.5568855746949724, -0.60380697247701, -1.4215234524980804, -0.3606027069007419, -0.12628030619428787, 0.6028479774033332, 0.1421756610937769, -0.3065504242223428, 1.5693821677216342, 0.2038807240771517, -0.1301114282574095, 0.015575032363266175, -0.6538173581270547, 2.02605072289015, -0.07650023568449474, -1.32251460225145, 1.020959393472329, -1.2137727943520995, 0.5152341218720126, 0.8397912034501321, -0.8125207682242068, 0.5498899663786522, 2.2102660319983025, 1.5464377695452387, 0.3069917477869106, -0.21147675600510996, 0.5446933714088135, 0.1304795910185593, 0.7066206796620671, 0.274760605089946, 0.9168809214310165, 1.2505812946598454, -0.7466033155904361, 1.0981191482390944, -1.076121188636189, 0.2688165835724806, -1.3666483007707653, -1.0481099886889258, 0.7016579518982718, -0.3592963630454702, 1.9243952343619743, 1.448313580357301, 1.7350049316257796, 3.1628622746108666, 0.4209266750118398, 2.1377345527060228, 0.6958955061693995, 0.3811372363983559, -0.10347867140217198, -1.1051868026542133, -1.4355173264355967, -0.7185074427168127, -0.7702404520788787, 0.346495476795918, -0.01712728077631953, -1.007387269511393, 1.4537251178422508, -0.5933060617497974, -1.1953819994836064, -0.18260782217426877, -1.3543321068855938, 0.0735146585828608, 2.0048888790084662, 1.3481994994161228, -0.4619111553977994, 1.6766126251524793, 1.4050963135067096, 1.106833752445523, 0.49366514204689504, 1.164115298903928, 2.040416316693774, 0.7668564189266965, 1.9916463083147302, 1.2139193243882962, 1.070735948349351, 0.2562487721593588, -1.0799363336589993, 0.1882347276946085, -0.18991161733916262, 1.0017033193379516, 0.20796039533190352, 0.5871184221938928, 0.10460683014405989, 0.21766436509726012, 1.0549914876237785, 0.7241320506887355, -0.1690410826420974, -0.7863511555398891, 0.7605151337419849, -0.12205188540312077, -0.25204237437414134, -0.6286519646919283, 0.4209589029457182, 0.44521728564210256, 0.3700774558056244, 0.296618761716514, 0.7480529191222643, 0.7727689413141248, 2.797880746755404, 1.1505718915127594, 1.085484836268289, 1.0064177779186865, 0.5465120836207834, -0.3954724974624437, -0.576656184760508, 0.42430192790451704, -1.6872580887640265, 1.060697583664669, -0.15273600209146632, 0.2087259977243092, 1.733651702205927, 0.13615673521814767, 0.625981017665455, -0.1354383618103527, -0.7522425318700275, -2.349509273780165, -1.340202120842323, 1.0180437322435127, 0.02857114678096803, 0.19727599888342157, 0.32602680678381646, 0.49954865599328635, 2.3054835265520977, 1.6569611017689305, 0.32558236700426196, 0.3492264474630455, 1.1713736800682524, -1.0520968261020955, 1.1669671301344129, 0.17803818112710926, 0.5953344140153832, -0.9581600839679917, -0.15593601222758216, 0.7203684086667214, 0.24470090314744433, -1.1232828420181693, 0.11935442634581006, 1.3453521522174015, 1.2488325837839922, -0.6699456794208251, 0.5318975175050885, 1.5374932485656554, 0.39073881267840005, -1.100651863312015, -1.7983642741386976, -0.6752640576375262, 0.889941279293317, 0.1819094336562761, 0.7377671954636826, 0.5988158891623432, 1.2621425789119534, -0.24043704882837344, 0.6516079707278487, -0.016540074276224965, -0.4136555837014794, 1.8723624587679872, 0.8323686622421473, -0.34546858875713543, -1.9466168700466868, -1.5826510293759457, -0.07894496359150689, -0.21548995727850254, 0.028704405587674488, 1.7320459626696931, -2.156387135498497, 0.4959235106243503, -0.27629799793008397, -1.1595887652518837, 1.431156665980591, 0.8679834575136889, 1.0953863404726927, 0.6836233592118119, -0.09771399109439312, 1.0820510090359234, 0.022595637434454405, 1.1475418964157418, 0.23092669908372404, 0.4611789627060907, 1.4867171451643093, 0.42261674950473715, 1.2570463798327856, 1.2953944546381695, -0.26563239017795, -1.249869220666704, 0.500591900410361, -0.46867241239802937, 0.29598344702998136, 0.15452825331405243, -2.022626387300421, 1.3181617119081896, -0.3976804687676467, -1.1643408072584038, -1.263491238449688, -0.044292931333158, 0.09176157977289633, 0.43202281572872814, -0.21493508530339434, -1.5265559178193493, 0.4538956585579076, -0.622046849577972, 1.1319181653182981, 2.9793012352650363, 1.3369908312545467, -0.7397376009168779, 0.5139962506372933, -0.4195375117310013, -0.8785700159268328, 0.8038249965792, -1.007269989412694, 0.12763348944310773, 0.029246896157605208, 1.7285647867352234, 0.8537150922718156, 1.7482550713462888, -1.135141395218332, -0.41247494682813857, -0.8685823928673655, -0.1303614216791831, -0.38929458028737457, -1.335798500680331, 0.3559215261879939, 1.731999441600073, -0.43293462332894933, -0.6130013537767218, -1.2829619791620495, -1.1720613034242084, -1.531218736678433, -0.4766357535259644, -0.03690005362730762, -1.8557265071604687, -0.3103965277283944, 0.3394560192124405, -0.37202729180224353, 0.07703004327335902, 2.998172894368217, 1.6129058673172427, -1.0225252381653929, 0.46649062821400106, -0.3380219204875873, 1.3219901430299754, -0.08533082578023371, -1.186813435802698, -0.47681151918356757, 0.6122447455585884, -0.3687759427820764, 1.166969796986026, 1.743429660327837, -0.07927952067658732, 0.18640116934043427, 0.22794253801743672, -1.9931796586102581, -0.5850139736343106, 0.4151062107471689, -2.799562768911619, -0.5610097378227512, -0.5167090114435116, 1.8691100200793014, 0.9241672204882314, 1.715043149329244, -1.4550147246242782, 0.8301427942707388, -0.3991361659422161, -0.857726011899077, -2.6014106901548075, -1.7193767803528808, 0.05426993874697685, -0.4686189009928567, -0.2224554173599762, 0.17785657412018308, 0.6831432138201058, -0.11390834978607954, 0.1442579718860817, 0.26212403445730076, -1.3120647111703976, 0.47537231263213153, 0.5212178615332084, -0.3049257622699114, -0.4006644675005947, -2.4309070202427443, 0.37810921591827457, 0.1829127934407732, 0.18152712499598325, -0.17173667536584103, 1.2181128060216209, -0.4019771338906715, 0.3078144248638298, -1.4194427606732534, 0.8250779069367128, -0.8565803516751643, -0.9155410663411966, -0.9130293335779107, -1.6673445423841347, 0.5702419271594066, 0.03151446237954163, 0.06714941935206345, 0.6586322925539084, 0.41963086555938456, -0.5367152505273404, -0.4545304432216237, -1.564652339463059, -0.5472143305506816, 0.09331006011866616, -1.9433084940646885, -1.5712751250826762, 0.2537701765838049, -0.9475182616856628, 0.19279318501373177, -0.3260231931682615, -1.3218885416943669, -0.13414693822192353, 0.7139276445304596, -0.6744047521843609, 0.4960303025471656, 0.6472197420452857, -0.534020487271493, 1.7516256416217393, -1.0033515644543094, -2.4809225917562547, 0.22082688874257425, -0.3047031425612507, -0.1244997864811738, -0.3070737210906984, -1.8074346523004212, -0.7317089124479356, -0.7716805850260541, 0.6204858875594972, -0.001807817233344145, 0.8412665114522605, -1.2122293653507543, 0.17427724151058577, -0.7768476196364279, -0.4396299899095516, -0.22746219784648772, -0.9455341071025205, -0.04883055138023915, -0.4262750006869666, 1.1929916108142333, -0.52762731782067, 0.10332127853742934, -0.5064380349297282, -1.5561493871046506, -0.24924846334962092, 0.9044553131262126, 0.020531394635861833, -1.655061185624479, -0.5643663924553313, -1.718611539986851, 0.8335722102356385, 0.04165547577338552, -0.8436698831606372, 1.6547993643684054, -1.5392146349589848, 1.8483593231303894, -0.6244654557001851, -1.356635920250317, -1.9092169962982997, -0.22796946740500598, 0.3133889375235568, -1.5985664786537768, 0.13811066348298692, -1.3060636346952756, -0.4485326693346051, 0.13648049884432695, -1.7010866101245772, 1.7788251621636315, 0.7077105764297008, 1.0617294933320303, 0.7316111278131764, 0.21299453170278448, -0.49480712442453934, -0.006873129711064603, 0.5182760864347568, 3.1015435180280675, -0.40875434487415757, 1.2761116840935653, -1.246321560723765, -1.4710031061598097, -0.5853994713134765, -0.5843398988522471, 0.2238438691628031, -0.640044619473143, 0.2280508868207369, 2.92555299712024, 0.5981804384256424, -0.5822357532271782, 0.0030376306597428107, 0.9201426157745085, -0.740058444196211, 1.0503785771984144, -0.6223508333404871, -0.10873247490594358, -0.8634738151183347, 0.6328991618793837, -0.3618705921056259, 0.9777448753566113, -0.8701123427451728, 0.8732767739058047, -1.9508169636740433, 0.40503598576975425, -1.2196922940335342, 1.6024573882169528, 0.9259056391887113, -0.3974386249239433, -0.4665214083994687, 0.0348708687444049, 0.2807389172514302, 1.302843279573535, 0.14689159269162114, -0.0070438069889097185, -0.5123206561666338, 2.7069046052299424, 0.4060361133967652, 0.6932936485475086, 1.616889026826513, -0.8143098855653368, 1.8200922527168621, -2.3386010226818437, -1.4195170112535906, 0.8311745880358625, -0.7806657426308259, 2.1598122409003264, 1.2148391613174003, -1.2097274669842388, -1.6507670706314972, 0.15074694835256974, 1.341671812040712, -0.8259279620859225, -0.28844972252830603, 0.4582434764920775, -0.022512473627626064, -0.8385659910603023, -2.6989687349415714, 1.160401259657851, -1.4215862847917713, 1.3422945579386405, -1.0135803679155588, -0.5794831920693377, -0.0018632513733854218, 0.08435391745383716, -0.765576837347733, 0.5443558095593003, 0.8082951111938065, -0.17185412132477412, -0.40734924756815616, 0.6053790858366725, 2.5276589178445654, -2.15512552026522, -1.2239704593134568, -0.812408592257475, -0.852284003716256, -0.488910127151219, 0.26256742844872843, 0.8620302702132522, -0.4820604418941037, 0.7680861703935723, 0.6589142650269874, 1.0618905851242866, -0.9426476145935362, 1.429215843591143, -0.4519545222259093, -0.8644526837273976, -0.11437938464605096, -0.9784702217863605, -0.24129829204962863, -0.03743272197496256, -0.38174891994865917, -0.860958878495116, 1.2579349355813423, -1.4395206658644384, 1.2577930343392718, 1.01334111349309, 1.406201601670731, -0.3155523539090167, -0.36209775169282366, -1.7073349816927235, -0.2922801296025018, -1.1464584304208614, -0.3226217245056324, -0.6502597948816818, -0.12473989032442417, 0.20025048998777464, 2.6627160413331037, -0.9774174143383763, 0.4073933549671756, 0.5809207547786622, -0.7675902035357286, 0.37778641944448954, 0.6006390335343353, 0.48330872223860993, -0.314812036687604, 0.01969021122822322, 0.48138143156567237, -0.8497009092589543, -2.13075853177549, -1.9268639681459134, 0.0905520814062229, -0.1431955192395119, 0.014720955630807319, 1.117629592402629, 2.1077519895336883, 0.6380177389768166, -0.32524002152091097, 0.4672295769466741, 0.8154081018553823, 0.910801081451212, 1.426496750997839, -0.8345479827166239, 0.8491219670622021, -0.3787822046448391, 0.6368304638914231, 1.1425062210996133, -1.1116813804911205, 0.6327140523906974, 1.1608896729793645, -0.7844929247980473, 0.9217847702758216, -1.0306954707026394, -0.4021947706138979, 2.2995394985368924, 0.3370786867865645, -0.0028202338990560042, 3.2186284992971728, -0.1874370692829357, -0.2560488421757748, -0.7431592590113711, 0.41140352675085845, 0.5756368439981936, -0.9070556921003304, 0.08126353582155793, 1.142495299112929, 0.4371636878427832, -1.0467683171216773, 1.743791055346352, 1.019988991416404, 0.44318387253121155, -0.042946645585269345, -0.1275235453329059], [-0.6625011147129632, -1.6872939510715537, -0.33190497398412105, -1.1625442214492996, -1.0382157164703918, -0.792191753710761, -0.20599321584064947, -0.4910048809910696, 1.9782976391220681, -0.6631621643961997, 0.6619462106341372, -0.10756521527057272, -1.5136624533608296, -0.14000348222772843, 1.304636793549394, -1.9394481296160668, 1.9631156915558192, 1.7146062578751375, -0.21340421135523382, -1.6040593529258311, 2.0545576388078164, -0.08439486568714034, 2.6168564853259713, -0.9484075839783865, 0.29591695839943294, 1.2323585698777677, -0.5988352453010365, 0.8526439960535048, 0.6089263979223548, -0.10906846657924012, -0.5825470887237275, -0.3184669153336801, 0.14378159485820607, -1.046925728895, -0.5062917849326837, 0.5018303340494114, -1.1272415716485846, -1.3201175958214904, 0.17627724794971858, -0.45848797173174094, -0.5375211569600815, -0.6051356663327992, -0.28220326407067686, -0.11117829682636211, 1.7699111609069667, -0.4243942012120345, 0.16678026758843806, -0.99118720725377, 1.3982661736000965, 1.3016825770315814, 0.8993496853105744, 1.0864594504685068, -0.6463347901026977, -0.6504379845399029, 1.107906813993397, 1.0556642366658657, 1.319016056701225, 1.2014458686436764, 0.6956753532686042, -0.8776667230908365, 0.4236508790764753, 0.8273990147641039, 0.7535088585675452, 0.6326780053953039, -1.3310673358075713, 0.5311378457843599, -0.4145876073672995, -2.5120494976955037, 1.2324478454743222, 1.5989874544986158, 0.1432646944193637, -2.086289090848624, 0.347884076136174, 0.3745632557333457, -1.3034737872385835, -2.2692647095670315, -0.49410989770933283, 0.5389748596466352, 0.04292322142029242, 1.3560104312554233, -1.416711128102388, -0.28299225479109974, -0.5827629976732028, 0.33634472687607114, 2.505210634994208, -0.3719184321929752, 1.6052535806136023, -2.168469697101754, 0.2350280592250689, 0.5518950681515109, -0.5649644714110763, 0.15271405771054855, 1.4809398171843957, 0.6542836671952023, 1.0531859014001332, 0.07583828245301001, 0.4423190774806108, -0.7021479899154651, 1.5854510388959384, 0.6154916877080475, -0.07611033532569642, -1.9924397592434329, -0.7078574045522783, 0.19273885043574573, -0.4826389482386098, 2.538905215263864, 0.5161264715707569, 0.8914788613082321, 0.7364866028087049, -1.2683536147601198, 0.9447503981362797, -0.36277919326705926, -1.1441361932562442, -2.0217001394709695, 0.6716834746191679, -0.4480203508974984, -2.4252398460845974, 0.8997279811403114, 1.3482308314496119, 2.242231585116115, -0.23248160669444018, -0.3922675487340672, 0.964849036778441, 0.6105555936581977, -1.9860934008522724, 1.9406088813299287, -0.522117963773873, -0.24997945618616407, 1.014723549542751, -1.7927689113884524, 1.8184607803836095, 0.7047691745221165, -0.7690479174554997, 0.4427678459647902, 0.9178128587047731, -1.3462757481598269, 1.2348596346757525, 1.151037824562405, -0.043450644688758595, -0.06631406562542758, -2.2930498888747075, 0.49412582068310196, -0.8495127882790569, 1.3009032283297775, 0.7802943375364265, 0.896573671178745, -0.6431884626491781, 1.2444014927754428, -0.07629441330660157, -0.23781972182214012, -0.6009556200949133, 1.6816616972925893, -0.5890285182638777, 0.17147630123432206, -0.5155116060854382, 0.2767659978172919, -1.720378643024284, 0.1414403335739743, -1.1765389733777263, 0.2490500585771388, -0.00978249638140907, -1.4728818829571302, 1.2485590258628818, -0.4794570070252113, -0.5822926595582998, 0.6156854273352157, 1.3281541113579105, -0.6896426981474447, -0.9595295943113283, -1.0758318042339476, 0.2752864849368982, 0.2738508269906501, 0.3726470490672847, -0.7946238022263209, 0.229760294201034, 0.9853682975164197, 0.45858659523595413, 1.6132385030453098, -0.2588492504902092, 0.8472106496082108, -0.679273450362591, -1.5531084291655795, 1.1352001985909068, -0.649477353368183, 1.1204522317936962, -0.9406118227393132, -1.7559707466406362, 0.07197626632671741, -0.3137832249116252, 0.22164187172873995, -1.2687273637251766, -0.527675276222769, 0.15816862697071485, 0.6100214469864527, -0.7182086439207565, -1.3725756121967565, 0.39396592532916075, -0.561111016499953, 1.6947561530009065, 0.0008569734154119233, 0.7007175349520229, -0.22986358180156513, -0.6885096613992492, 1.1551501394143904, -0.2690143404420831, 0.4239648171035943, -1.3843595859118245, 0.01245226111596634, 0.13193492089094117, 0.09149498201662623, -1.3776956882216815, -0.5411755958805119, -1.507825832408236, -0.7466391029744424, 1.995935562670679, -1.679392047090543, 0.35426777457317443, -1.8542394296684632, -1.3665564499157965, -0.9099377060906332, -0.22395139573183012, 0.7476296064603895, 0.9563590103757083, -0.04267272162257509, -0.7576450009734058, -0.561183342471331, 0.1855854755721422, 0.6874980309805085, 0.6603821411040718, 1.973577093169031, -0.01851910968215031, 1.8097989870472144, -0.1279222353387092, -0.23353800070754976, 0.14619989808573752, -1.2737394469856795, -0.7601964457468185, -1.5292544702975754, -0.3698698018923086, -0.10677396608789601, 0.4039887755337811, -0.0770829597043371, 0.4889362117734151, 0.018960237436617955, -0.921929239340638, -1.6411195248692203, 0.6393289454826943, -1.6820117444742997, 0.3008660478912726, 0.38002094856968427, -0.538582079891199, -0.16420942663063987, 0.15385283223503457, 0.6816991456691073, -1.4739389996172643, 2.9574070821834617, 0.34173477456679463, 2.701852823297852, 1.386078378970636, -2.4451373937619505, -0.362856773574709, 0.4616286680741601, -0.0689283254578481, -1.8458174275065846, -0.0032185238240237143, 1.5649665409287157, 0.9515700583600701, 0.9056459367144151, 2.9183104288217896, -0.41772492666370037, -0.3811638134038901, -0.05209036545390306, -0.5798931805382039, -1.570897553929299, -2.417934182245237, -0.2735489004070342, 0.48606441801729205, -0.2562160594757001, -0.4108109465232746, 1.155933868108282, 1.8439714492283257, 1.0680471434946017, 1.1443394056897331, 0.6854060683341933, -0.2413452338375342, 0.29018320523983593, -0.44515953911755785, 0.09970200396103555, -1.1351967670476737, -2.4017866996090156, -0.8590777329572375, -0.7458775407605261, 1.3163107613701248, 0.6423304698940253, 3.4186339742026632, 2.4879472542973065, 1.4199943720485748, 0.009953590720799396, 1.128063347241883, -1.7179390370712027, -0.6539131764331961, -0.20693308210384784, 0.1783197767379129, -0.8435970384048591, -1.1854992763002155, -1.4238892940599486, 0.1287917806704084, -0.8338562966725123, 0.05984562983628081, 2.6839118735046408, 0.34349678067869804, 0.6540156268664646, -1.9384794841384418, -0.4198928757842757, 0.5288391061129505, -0.2812277333452548, -3.04573068214933, -0.01150966146045104, -1.1474985612117934, 1.0374963550021759, 0.5422147388567705, 0.07801725408847356, 1.763103091012017, 0.4018850449553849, -0.25166354743959035, -1.0769882482057138, 1.6309711993970089, -1.8127273215920756, 0.6674951610685854, -0.2400091598599485, 0.5074182396310962, -0.5242631359276086, 1.913183660879757, 0.9606304292211996, 0.46333393263046657, -0.20846824317037196, -0.9267901037370263, -0.6854527431561581, -0.5234198281897926, 1.1070935460069324, -0.11404177654291438, -1.3228670113737455, -1.423121929422567, -1.3390413993939347, 0.7336962993421885, 0.32927721755200356, -0.06995938197699944, -0.828265179663942, -0.22507289503415, 1.0209635048651455, -0.04226092099479745, 0.3149916788167863, -0.4326031108681194, -0.21425432947976766, -2.627974310218818, 0.7373544215093919, -0.5655068180821968, 0.13238768618050825, -0.19588060211180813, -0.6293655917814034, -0.7063568357442872, 0.9726177888612273, -1.4441338975796438, -0.5147461663951411, -0.17526117540293104, -1.5226908544400972, -1.1879769863319716, 1.3699843196794876, 0.024794754093829023, 1.0093424247687492, -0.7317686539497427, -0.22738450830213483, -0.944659655648665, -0.7458708763467431, -0.8605536636187925, -0.33237965065238173, 0.3268668343968148, 0.6018920147858783, -0.062291143236561486, 1.0419708590370007, 0.17731958219402888, 0.11425936657508592, -0.3726856402257768, 0.05655938818022355, -0.7799686448654533, 0.6538302639954376, -0.8203978349180343, -0.0024584482007404943, -1.3982271924204144, -2.4964558037312736, -0.6489768444199084, -0.4993318680110662, 0.35036007655598955, 1.4028590187336725, 0.2819505115606668, 0.9840872603371675, -0.6168774677623988, -0.19252306822796597, -1.3099866757181575, -0.30571236467336893, -1.628191605988803, 1.526093806789705, -1.8899445186171453, -1.72197021153812, -0.5211985032153267, 0.13047892881480083, 1.0757002367994637, 0.2033863579415721, 0.4844451992620279, -1.7401948432936252, 1.529924716086182, 0.5858600610356544, 1.2120616099162413, 0.30177016043177407, -0.8746590110668966, 2.0557470561755267, -0.8356952735035539, 0.5472072092039795, -0.8560403102938196, -0.013478957522204337, -0.7122412067896755, 0.49128339293933504, 0.8812270297028599, -1.237137790190418, -1.6857165591680132, 0.19745882549161942, 0.5240959956427625, 1.6773976540556095, 0.13793968404951784, -1.4454523677479023, -1.6451343487642052, -0.1462849435403522, 0.6292591784258286, 0.7254424917280298, -1.2099031198686916, 0.6686802093616154, 0.5521081167591354, 1.3746985786251018, 1.0857004279579527, 0.9318389854968485, 1.0632367122704867, 1.461229683026791, 0.7914749925666699, 0.549975831403604, 0.30587788974184127, -0.529667828607347, 0.9251149489184629, 0.5474503940953763, 1.7119713520956892, 0.8524107489208304, 0.8616206255120157, -0.5338513788135449, 1.4253099936945488, -0.17565400041995993, -1.3590984703399445, -1.0486211138525734, -1.7479763382020492, 0.6545861360899079, -0.060946654932504306, -1.6818909543002623, -0.10278669279863847, 1.305706173700308, 0.958606352601214, 1.252507118639225, -0.038004802813178896, 0.6027073997033878, -0.13443336004509976, 1.2737842088169828, 1.08660336911915, 1.3173288832372851, 1.602690950648021, -0.45311461530357944, -0.5118589390399648, -2.270161331433349, -1.8421511280731435, -0.5531334548385023, 0.6024228308662585, 1.4015024105877707, 0.9865771772543224, 1.779193473750587, 0.7531766835754863, -1.2590463403382144, 0.894710984418399, 1.3916392291145327, -0.3265313182437391, -0.22467134018848445, -0.5347523644197579, -1.2724062202351523, -1.7806773773215065, 0.7650979382128212, 3.0065418926227885, -1.459710109813106, -0.15112869366988743, -0.37320130860290507, 0.014374780653879428, -0.03398363940289456, 0.8351093852788979, 0.6076248569881101, 0.6783302209002687, -1.2016876625171464, 1.336951836627985, 1.9983179672913793, -0.8676194789498354, -0.600306062116579, -0.8606919977265652, 0.008372128633319853, 0.12040408959629684, 1.3904242786501055, -0.05784361701473908, -0.21816789254109495, -1.4479646622248064, -0.2904493582161695, -1.0031279052148696, -1.432120065864859, -1.1987389711316925, -1.4199027704402243, -1.490794541390455, -0.9105056118236403, 0.4701602680107321, -2.044119289241311, -0.661044728809439, 0.031681897046228674, -0.6900408966721704, 0.9338839952607176, -0.7506282830543536, 0.004959791500865501, -0.2508974341876711, -0.44674658884874546, -0.8112731164445597, 0.4430040418377006, -2.227815989412628, -0.6709124398053253, 0.5535405904239017, -0.6821088109861702, 0.2951324871803651, -1.5799475024065754, -0.023394080578010207, 0.5920172510461923, -0.38080833749381215, -1.1747603769508952, -0.04998586283555399, -1.7888064963911008, -0.6762929020176905, -0.5470017321038732, 0.1496172654968266, 0.09636804786294757, -1.0737710050540052, -0.44842332068951507, 1.5168372413188402, -0.6626725570002491, -0.05858550805448547, 0.3813385717220568, -0.10452367289711843, -0.5872751129024685, 0.4519969038545002, -0.16426706244333605, 0.18690021914789123, 0.8978230874044544, 0.8929213788863557, 0.6355218245363947, -0.34560575071463034, -0.5690755070138025, -0.827763970911577, 1.657628796555295, 0.1583589473243704, -0.38241020411988086, -1.755147237601711, -0.04860503993753715, -1.691920293263228, -0.367279709513152, 0.8725700467662973, -2.3507374473145717, -0.5780469648788443, -0.17804066631060966, -0.4662860982907185, -1.0687238811344608, 0.6393370104320584, -0.03817959284243922, 1.5627852164209863, -0.5867268129205307, 0.8953575102861774, 0.005761188480883327, 1.4882562553922707, -0.155946910362503, -0.8828261904805681, -0.02910182229890636, -1.0463097775846961, -1.4341018617693975, -0.6571750014338176, -1.2236439708506515, -0.6029736335800921, -0.32723727486774995, -0.0417883328844044, -0.8639314747440775, -0.19612720323281127, -1.0614525220268274, 0.30893588898199, -0.46389200806261105, -2.084675611438205, 0.7819799265454004, -0.033906973676337465, -0.7269241151322806, 0.436276403521237, 1.4769286520197946, -2.6715011018971144, -0.5707913637081621, 1.6783677311470873, -1.1321485739558135, 0.24967601845700332, -0.2707924183661362, -0.7705904363205907, 1.4959407100753195, 0.32894388157169874, 0.22707537505468756, 1.2387002577034691, 0.7407854017914813, 0.7895139573081003, 0.8781831659120716, -0.11424114678834878, 1.0088344558728002, 0.2546938190947426, -0.18696457112918577, -0.0012916050606888159, -1.3146687457582829, -0.6847000378362149, 1.2215095960936353, 0.25111732601131354, 0.38137840396153144, -0.5852519275123722, -0.711388006371652, 0.11660491894444289, 0.05805190536105013, 1.5303523576170837, -0.7045323777191003, 0.8433774123474481, -1.78875902090487, 0.9522585503738258, 1.0166046816767373, -3.594916534357122, -0.4737639897072363, -0.0971478622232466, 0.9975233808884512, -1.6908504657993642, 0.23196559295377317, 1.5179566251525813, -0.6561924788061291, -0.24852898809976406, 0.44054536507598546, 1.0191625226608154, 1.2459314283389331, -0.22514134812799613, 0.2795403308216438, -0.4479840106344556, -0.36580979993912016, -0.8177906256814029, 0.9427786313839756, -1.8988711165677084, 0.40656823520001734, -0.15397002297084225, -0.40972202150423936, 1.2235182756785608, 1.0929929590004686, -0.6624607739141511, -0.37028401830095503, 0.3906509403745649, 1.4404131636228308, -0.22176708758296862, -0.18390830172767555, -0.8093441705849816, 0.7134785151809376, -0.6940154437413492, -0.04915612010943863, -0.6612803312337401, 1.6344909436616304, -1.0587096384612433, -0.010960463746098652, 2.065816506902967, 1.4860001887751706, 1.6178094939317298, 0.2092248232884351, 0.8228113977535043, 0.7034474006777237, -1.1666939863274528, 1.5773768101144678, -0.22498925272984302, 0.13377124135219548, 0.268699208753554, -0.269316477315765, 0.5330417023395875, -0.4632310624994632, -0.5471830155682913, -0.019280375812288836, -0.6742246115768354, -0.4229155037227813, -0.5315406115777238, -0.004742379157198606, -0.42903169699244575, -0.10125560952553918, -0.4083836365926469, -0.3275414011765449, 0.3116828988844281, 0.7393561897011216, -0.8870933213416208, 1.2617417055257827, -1.1844932844864546, -0.22045159423502078, -1.247938116589356, 0.3429856718526127, -0.08977373082622528, 0.04996956155730745, 0.6384505618588356, -0.038732847357696956, 0.3768302490983625, -0.4343626902435334, 3.2031566802461877, 0.4460028671880817, 0.42222692094217884, 0.20718293696497436, 0.8167442106769321, -1.8962861731912242, 0.6958444502792422, -0.39660257048921943, -0.528896235238836, 1.0541383562381033, 1.033674459735546, -0.7728029280302021, -0.3744507373477423, 1.494542041402154, -0.4333847793196368, 1.357691450141884, 0.1538176586795694, 0.5277740511317287, 0.7170895897742374, 1.0571690884862088, -1.5539925801831336, -0.11306494580426324, 1.2659132662524692, -0.5428166429938903, -0.3479983189554288, -0.704732247635071, -0.4513258720287872, 0.3378494022023485, -0.33933224590913585, 0.2782499059579168, 0.08389503268660738, -0.053031919440292494, 0.3302362625154625, 0.3466828009816856, -0.146358541690958, 0.834663530370998, 0.017387900332110778, 0.7648095060381871, -0.24259967606379487, 0.292433985170004, -0.43871154654047767, 0.6270204364095342, -0.526831003762146, 2.058156422729985, -0.456409130790361, 0.1324868189748829, -0.6426121651090417, -0.4137489542380572, -1.2942340264621295, 0.5656516571813628, -0.6751265699437916, -0.06479735731476798, 1.1204739684951308, 1.4631946532250637, -1.129355997398797, 1.5189436812350148, -1.7669163789969473, -1.1841012080020143, 0.712299073674886, -0.36614240963770606, -2.27411392568849, 1.0658307762154327, 0.5874043506948017, -0.9047392610961913, 0.4576125897651527, 0.29071173961622354, 0.8457551602491876, -0.7850247140728723, 0.9384240105523444, 0.7295067992469438], [0.20404606303499456, -0.3618369753137973, -0.3530724879145528, 0.6247890913804599, 2.1279092795751104, -0.3217731005475927, -1.992744393980572, -0.2465305861754216, -0.806559930977104, 1.597484611985637, 1.2181619010617504, 0.952994216535307, -0.9982999149743563, 0.35171977982861646, -0.6516190446632226, 0.972151694132393, -0.2805480526238045, -0.3036957859525427, -0.6473742195904042, 1.2902109100954118, 0.7644343230321462, -0.12056425256110687, 0.54234365803952, 2.0895967856433204, -1.4750372723645915, -0.20996529187004806, 0.3164523954772616, 0.9294531353488075, -1.4513798003254572, 0.615385382627844, -0.6777339263052663, 0.05870743952662174, 0.1040964224334906, -1.3318634159699299, -0.37029440684589165, 0.5410492051632001, -0.35321769103874406, 1.4483501043523075, 1.021511961290334, 1.7279379230988718, -2.0561637762810485, 0.8982188887339657, 0.46509583911422775, 1.553081004279247, -0.8821617963236309, -0.8535665084299241, -0.6134596255018638, -0.31333576553681664, -1.0978390611506916, 1.9112275879309861, 1.4641999361123819, 0.3845479450850627, -0.988093290110623, -0.9833454265289143, -0.11057693251826078, -0.17968871352981272, 0.3388639477695826, -1.4741726415455012, 1.083368684296632, 1.6179851392128501, -1.6974439736727844, 1.1371975910315306, -2.2796946087783825, -0.4376160639544132, 1.4122259299173998, 1.0489045496868319, 1.8146982537096554, -0.5967514894175344, 0.3705402002965669, 0.5011951858420798, 0.30108345873175413, 0.35572848145190805, -0.30701247226288575, -0.36151947594526057, 2.000440046602451, -0.9915107300334987, -0.2690898920856214, -2.2528507908072686, -1.8780567160985546, -0.545418209884331, 0.4202078222884076, 0.1152368445997438, -0.6000368799765684, 0.9438394233028363, 1.0632265648609862, -0.057262108580174866, -0.7976629828958147, 1.3313476838758056, 0.6430361088499179, 1.575305741369784, 0.5773403616223076, -0.45136714479252443, -0.9582701174903782, 0.7494707937716217, 2.291589600549967, 0.8472186107673749, 0.10476180136322241, -1.3491111171004524, 0.9159923178439295, -1.7560844011137857, -0.10135019234214636, -1.423483287616622, 1.3754138729012457, 1.1428937596969149, 0.804836848994113, 0.5547469225612803, -0.3992668355644461, 1.2774934522348231, -1.938979116258216, 0.5575620481449425, 0.12913430418652652, -3.588873654057817, 0.4135053549579313, 0.45968715036656566, -0.7055354380787372, 0.7667974178691525, -1.3417376414926387, 0.1534871611425515, 0.4515067472045223, 0.6227423781315451, 0.36489904385385497, 0.8655270801547881, 1.4976425826867228, 0.32931212361042855, -0.1282725593168069, 1.294651327286025, 0.6992493289601199, -0.17420132054641302, 0.19480407514250292, -0.22508678046883773, 0.07713855950942697, -0.5896204697784356, -0.1826382673553303, 1.2804582560380022, 0.8229676090210357, -1.348381155083616, -0.6836249439244035, -0.10898496131713413, 0.3371732418980559, 1.8935270892171217, -1.6527051991193202, -0.5358695420430118, 0.5571714928218919, 0.5802237467006754, 0.5503842048388747, 0.6807077056451972, 1.0323175051974354, 0.6580697592788701, 0.43969514424935585, 2.011599062658409, -0.7688130185763681, 1.597718803269802, 0.5008513026345449, -0.4146783686547396, -0.6832355361768241, 0.25378295887159963, -0.9223174405948699, -0.2890521240773379, 0.339293170368502, -0.04316954878160046, -1.5442471768014874, 0.5262585205791256, 0.07870408341372945, 0.8446016643341598, 0.5740240087278146, 0.8529472651898318, -0.7380984316448532, 0.7638078721321732, -0.050360220204527725, 0.5706524094989903, 0.11638369295797367, 1.345487285839068, 1.679489025192406, -2.589097177835541, -0.26366200451995797, -0.10163895573819014, -0.20214361329636155, -1.124389671340868, -0.6191491225793442, -2.10190344765732, -1.19091903635223, 1.125720336862393, 0.3169467115755581, -0.6760206827948069, -0.1331182835883045, -2.8521294212821853, 1.2935141219837527, -0.30865572079307635, -1.0118454935443193, -1.4954169035580225, 1.2492668623651129, -1.0953194907708386, 0.8160302912080077, 0.160826904267676, 0.944196698438372, -0.32293683894442393, -1.2090263942628954, 1.2978835935420618, -0.24451207398960492, -0.9813666054664953, 0.0034045698912932043, 1.1281796695083515, 0.6532686512595736, 0.6368775442254345, -0.7885341962218739, -1.8311098641732557, -0.9214460288119183, -0.8672122312206091, -1.2254410902441497, -0.12606819352191556, -1.0791276333399984, -0.8947741127115959, 0.2242145597972683, -2.0353758187800475, -1.801614564654417, -1.932130055043423, -1.977539568402305, 1.2951831499613264, 0.009444467428463416, 0.8994345946455058, -0.8572497927755832, 0.7953211567703015, -1.2107552502445929, -0.9062259546988433, -0.7018092539534558, -0.035499631172390814, -0.0793414945535417, -0.5550394859076103, -0.18764520480890237, -0.21665238155688574, 0.15815031447658692, 1.1994215960541676, -1.7147481890017866, -0.3775747385546749, -2.734692515096073, -0.6119976215511506, -1.605981934272944, -0.6213357100906961, -0.40644950695894005, -2.175385613648045, -0.1090478054583731, -1.7172606323451758, -2.0474433103779197, 0.8401920529651774, 0.10014031967876669, -0.6448639161015134, 0.5509128706495698, -0.7907121202428695, -0.46197410112949283, 0.8487438050991393, -0.44072534519422546, -0.07291542227668221, -0.5129241093331892, -0.537808468440168, 0.7828515027803657, -0.22643190900083635, -1.5987691420955938, -1.7043833284236802, -0.8453395606003125, -0.03604475170731466, 0.25778773474781785, -0.2761193257824588, -0.35271296506720273, -1.4453128900119394, -0.18812355529276528, -1.1187771629468493, -0.32065678832317074, -1.0796720926583205, -1.7030363936427368, -0.9564936582876619, -0.6433144272721987, -0.054446942624628264, -0.4730990903875882, 0.14165853528184852, 0.39018379489800525, 0.08612035560810873, 1.0500331093754791, -1.0058448199248131, 0.7507402920349835, -0.05879385717298582, -1.05809179204598, 1.3306559280974446, 1.3359068448133777, -1.3283568237404157, -1.1025679059883573, -0.28579974051163987, -1.3903037036780626, -0.9363560996008976, -0.802308866564666, 0.7306341597938795, -2.3641506575886644, -0.0018481092219988073, -1.4365998842705123, 0.6743610208889395, -1.303888295047832, -0.2401321100084929, 0.5884451107051132, -1.1315786818532876, -0.32370291915165417, 0.07149838805379923, -2.080347232136374, 0.1569026210590281, -0.42103205082200895, 0.1047433268246198, -0.3189026725649736, -0.8007968329817567, 0.5829279842916152, 0.1118455060964758, 0.7208158891161055, -0.9905346928889677, -2.9587891904594033, -0.7510725803765841, 1.6436621779564662, -0.7201488584521012, -1.4577953977048557, 0.1955994705224589, -1.0413535367366784, -0.6148649583837368, -0.17452955540206952, 0.07458576289804533, -0.3844398307989382, -0.5335692588384273, -1.2252374991103994, -0.8813062302183257, -0.7536990709905728, -0.06223696211657213, -0.6031780573040371, -0.4506032841573019, 0.3612542220462829, -0.2768384946834104, -1.878309633830832, -0.8418612345587742, 1.0860936397287702, 1.570180466820316, -1.575791592298758, -2.068811724217601, -0.0016774096394843827, 0.9907892701937965, 0.9622222201375971, -1.3988223796473207, 2.005588121908097, -0.1284994135301306, -0.14403902006778554, -0.2962953670994503, 0.8866129517732263, 0.8583489726141197, 0.1618128085932069, -0.3633705476352511, 1.2543333863231014, -0.3376352675923835, 0.2542504621764773, 0.5240725432339521, -1.7743012929799975, -1.3983422022303706, 1.1012758185543836, -0.3489467339243968, -1.6700195070213657, -0.3544911922816091, -2.1443297676222546, -1.039967733846849, 1.3998933368646413, 0.1629603833704766, 0.8535266456398087, 1.2876231298595933, 0.0021658489547707826, 0.2657218306838935, -0.7545679313835308, -0.20372166736681724, 0.8445814365415358, 0.18915814739680958, 2.2407607634046216, 1.357554073419564, 1.4921284527579404, -0.2057206835250798, 1.3208452832123394, -0.9832780459647801, 1.8025017132939773, 1.3701099005169197, 1.3404869113806654, -0.3296907488437652, 1.6279017169392436, -1.0433241220412075, -1.0721276688788322, -0.46296445397190134, -0.8734840321421813, -0.22435281557668726, 0.9187951223447781, -0.3309818267330401, 0.6928470886151389, -0.7911472751598739, 0.9258604442921863, 2.024445388393235, -0.030478734522178343, -1.0120635490743763, 0.46445963594115053, -0.7872764541431302, 1.2633776283892886, 0.4539838236767191, 0.4155422708716707, -0.14111237286128794, 2.1543244674211306, 0.4330446071869215, 0.902730051416363, 1.3909427007401374, 1.0525578709904295, -0.28338476019487696, -0.29475220178133166, 0.18470639497828456, 0.817646145129698, 0.6230771496976695, -1.1165721883585427, 0.11986339076519692, 1.278725927636724, -1.3471781252195585, 1.3361352171098881, -0.862801850142149, 1.5083188643957341, -2.2320969945193503, 0.17689818731551515, 0.015330844856883684, -0.11885057364366025, -1.5117842387468767, 1.9161119666566946, -0.5028106535909906, -1.353706960886093, 0.895784154323939, -2.7594744799539312, 1.0038831126224086, 0.24796662822306043, 1.0721402468479708, 1.1306813078941087, 0.4448719849277202, -0.20041930019418483, 0.9437824939711604, 0.9153579895097559, 2.7531374859303175, 0.9828455613028525, 0.7680067566457925, 1.2661407846992696, 0.707181755595921, -0.3844747960967292, 0.10318270286976418, 0.721781176894173, 0.7640732365397609, 0.5393084428074403, 1.3045824444878122, -0.6151222161870412, -0.6195472612456782, 0.16134052126889986, 2.1479954677715734, 0.5532314063798591, -0.35182870262859095, 1.4730593413341422, 0.834044885488457, 0.48324208679218456, 1.1260746057578046, 0.8422911011983146, 1.3401403710756676, 0.8504415543733334, -0.04248849040837966, -0.27675580505132236, 0.056676393041523346, 1.2953685111006332, 0.4824297994071378, -0.005530437832468925, 0.8956121218558554, 0.8623158540522016, 1.4901131194606159, 0.25983379663098405, 1.5345779031700322, 0.2606151257474152, 2.105952143336654, 0.1043268641632687, 0.8211563756487038, -0.16378652996852988, -0.27481544783802225, -0.6182216340688077, 0.8590756677362612, 0.8077164011614058, 0.3672146187991021, 0.9850137640416825, 0.5442008377916663, 1.9571305053335413, 1.716143550217254, 0.5849372553439326, 0.2351863063279975, 0.2393797727082464, -0.5379900100523834, -0.07619381370280484, 0.2354513379507328, -0.08494512448707407, 0.9450290993536501, 1.4068341427191322, -0.17480782187310484, -0.04131769800654472, -0.6392299898349408, -0.13643057379419776, 0.009264645433775125, -0.6949038665623275, -1.089716255719554, -0.010965133166101548, -0.0672765764066427, -0.11752385107546626, -1.3686375114787328, -1.5303316040704498, -0.2989040264226511, -0.0806613660884561, -0.09005856209616131, 0.5732544177952821, -1.5841722868660364, 0.9294409152055458, -0.22356777636729624, -1.221753777867067, 0.8035130678786873, 0.944910950890748, -1.0791242623282442, 0.3103515002123895, 1.3535717451358078, 0.9527725632686447, 0.49561116772141184, 0.9902676886529073, 0.3831590323539875, -0.12861772740061758, -0.09873562455462428, -1.5797753199628983, -0.3890553135238986, -0.37268803548453755, 1.2619510920824257, -0.06378591851885175, -1.835705396468542, 1.3457763716893432, -0.6120367600358587, -0.49376756586942366, 0.3540705006813909, 0.7491158666438739, 0.41015424280378404, 2.1547767506469953, -2.2200793651490023, 1.5752072557231005, -1.0787343523707922, 1.5727196002945105, 0.6991379422427804, -0.15614147877494386, 0.5816875441087224, 1.725049149491636, 0.3920671057628603, 0.007638318544888467, -1.0239488161477308, 0.3688586724678804, 1.5260159846639019, 0.6639479754189594, 1.0873821546880986, 0.4558168666561595, -0.19362551985495657, -0.27853268508332635, -0.29754167796208186, 0.45784469671357664, 1.3559981972521444, -0.3190118222429904, -1.2814154370596254, 0.22413847099963982, -0.7560189087616745, -0.29323719161107303, 0.18976023509930165, -2.110360854781061, -0.5756749152139515, -1.174803884194662, -1.3836500707888466, -0.3946463925093635, -0.45774814352851306, -0.2834728005006854, 0.03795721875761056, -1.2709414416891451, 2.831702305863948, 0.9251818589072118, 1.6257709762985393, 0.7696957355009719, -0.6638277649359717, 1.7586585624192344, 1.1210980960210337, -0.4401352354939318, 0.30289563947217163, 0.8460054873659705, 0.5573080077788217, 1.9961285582557489, 0.158034939280759, -0.7510181711734598, -0.8943962739080543, 0.6346589942217548, -0.39262006187056253, 1.8623356819605692, -1.5436074830655733, 0.2506766459071456, -0.2272200850835003, 1.8061127821445178, -1.440835419322327, -0.9116282051400607, 0.21045140935213333, -0.4520997239813741, -0.46129173696550446, 0.008240581024664054, -0.6402142802463711, 0.12359610697880707, -1.000169031956857, 0.0774308133820904, -0.10581504716240968, 0.512811281352882, 0.4222295644508191, 0.08385955322972705, 0.5341057298778855, -1.1062403452644562, -0.9063676365229733, 0.3651571450360468, -0.5717829688273403, 0.2236279834676639, -1.8162663788916242, -0.46997617453058343, -0.28044303095811896, -0.43945120837625584, 3.1140055427932225, -1.0883182405632819, 0.41106731651467293, -0.6703339233622321, -2.7256159209587945, 0.24601538588367364, -0.2620447421128465, -0.9926375564340422, -1.4270753916453927, -1.273954066653252, -1.4354597496267525, 1.3289501937555979, 0.8037401248042232, -1.882071087793493, -0.3598408158127473, -0.31171002601524456, -0.5519228384807768, 1.6845162761998862, -0.741972588499927, -0.36985146800358176, 0.22817511949759411, -2.420324515251682, -0.18235627326391174, -0.8593660658901534, -0.30430190314827726, 0.12568421888790948, 1.5171204796425837, 1.2069377712756635, -2.1823179826609866, 1.0760272745215653, -1.80333615139492, 0.16218577078510782, -0.9059687285927072, -1.6578891037419623, 0.017940501807261405, -0.8332219040836553, -1.1451426034130243, -1.0521368504821889, -0.7923304324033414, -1.5680665744308409, -0.7494471232579089, 0.5692310694172041, -1.3319453781872803, -2.1037426740347858, -0.5074031774353842, -0.4150450537745041, -0.6701562154175736, -1.0629705441200055, 0.9622715589618049, -1.3746210873597164, 0.11819279727422174, -1.1574935042889094, -0.858195108842158, 0.9534678021114517, 1.2511882093494247, 0.5764508249114544, -1.1289918590372783, 0.5869733768207758, -0.09416315378417991, -1.4236130170062897, -0.31463399989034346, -0.6097765337005607, -0.8370106488291549, -0.3240500942844918, -1.479731024357424, -0.9182056773821851, 0.1998997640280815, -0.9939780107647478, -2.5744035811355785, -0.2637102276478989, -2.4099363719956846, -0.35615745513119607, -0.6991128049589087, -1.1041199390506748, -1.5130622798144928, 1.1417543196611455, -1.5902823180859773, 1.6402384107664143, -1.4145308083824997, 1.0373075296086864, 0.5516559138329135, 1.549013253687445, -0.6027540223764514, 0.14664020703822347, -1.845432352346583, 0.7740939154728664, 0.2752115341607709, 1.8363363343091788, -0.04661710422987241, -2.089426472376831, 0.19293867961637887, 0.6200672618743052, -0.7466730117987885, -0.08304666423205198, -0.678683849719623, -0.5402038687799765, 0.515148378672024, -0.6194475511306456, -0.5303785730130662, 1.1047497412218654, -0.03010595845714832, -0.9190395038727895, -1.0441727593394572, 0.5273245054880461, -1.6293640553140993, 0.9817487682087793, 0.2800351894766074, 1.287857878245258, -0.030296039590082886, -1.4265347404376338, 1.1660187781315063, -0.8452140948656899, 0.34225567719752836, -1.8908180805739698, -0.5565255133513277, 0.23982253260664865, -0.5670228956970075, -0.3510891526970116, 0.7482032967685628, 0.21509006600600203, -0.1637547962616231, -0.06460606641967617, -3.3439150084725844, -0.11956936889837225, -0.8228159720740259, 0.07446173483602672, 0.41739796291822256, 0.6206828898740302, 0.929703533515197, 0.1439654822691881, -2.302547215235902, 1.3610003843669474, 0.666812282176145, -0.32768617946952994, -0.06710815135301738, -2.2348735712530616, -0.829032119552257, -0.20430288321218376, -1.4687266281770663, 1.3486257984256287, -0.9242646215330399, 0.05980660707700867, -1.3569464640271225, -1.2134954480159883, -0.9327078291231843, -0.6644537646950671, 1.055360080279984, -0.618318633563979, 0.16199601155737245, 0.4415998528897321, 0.24259968166094104, -1.7419109836063817, 0.5492132361018613, -0.808019442785401, -0.23998540870464255, 1.4432418545872499, 0.1672228629919897, -2.2038471255118925, -0.7245142839264294, -1.2803148778236766, -0.08877423802225917, 0.2045382299858161, 0.735195747152567, 0.3051183528138283, 1.533097638396584], [1.4696016869436233, -0.30313384099023577, 0.08171492008312514, 0.031313932119173084, 0.6867235461346086, 0.15014219500643233, -0.3571485895253753, 0.39549701812930466, -1.383139963570415, 0.9954143167467354, 1.7584541278921382, 2.045645507669805, -0.621100860014521, -0.3739644890794107, -0.11962709768166097, 0.5914109910468216, 1.88442762958683, -0.26430171066906066, -0.5355114206010153, -0.9780019933379096, -0.9411456915119554, 0.23787678056286762, 1.3831314833070414, 1.1567611957463826, -2.1105008715659594, -0.10614591345755779, 0.4071440872946479, -0.3351930906056653, -0.8596571387843881, 1.9515730508660991, 1.3910969874663608, -0.7547965229152906, -0.829939367953941, 1.408310936523238, 1.5103409867680444, 0.814499514287501, 0.8798056455123344, -0.5704534726658577, 0.7828920582267507, 0.6234280514183593, -2.673311242110747, 0.522175962014274, 0.8192681000132175, 1.9249815043065894, -1.1199554032851724, 0.9819168630296343, -1.3815026846750005, -0.25628202852334875, -0.7301608177849154, 0.8148604782498017, -1.7047614845870944, 0.5339173430892711, -0.40607806948836905, 0.21937341322099033, -0.4759105204048126, 0.1108393710426762, -1.8465812011117553, 0.49240562951543343, -1.1939952836012235, 0.9527985922293833, -0.5279841224719752, -0.33432369781278787, 1.4578795748149238, -0.26764286814133553, -0.26061409889364595, 1.1386147906726964, -0.645866904591104, 0.9147066356617051, 0.35638735801967114, -0.6409024714007298, 0.6326344035743646, -0.45368712566311065, -1.6363367396667972, -3.468366097250956, 0.5750157676877375, -0.4319886746933744, -1.84435206335067, 0.3331747284710523, 0.474349771235142, -0.3914904794479788, -0.35315472591467906, -0.07311140418186048, 2.3848881417594887, 0.8261103041233573, 0.5719232509400468, -1.5269494723513222, -1.0386334832638924, 1.1958301938872615, -0.1973745178142324, 0.8495017555533173, 0.010849433799494932, 1.5852562526031324, 1.2184964411687755, -1.6893730890549041, -1.4121425676949744, -1.4482373155349502, 0.30025555080407856, -1.6970073966000152, -0.0815228414345516, -0.6015131253276219, -0.33289848714623704, -0.6174397592699955, -1.479859694202054, 0.5955800681619007, 0.33694032078633007, 0.08054475823129466, -1.5161223175673781, 0.8795452798170034, 0.7080218453699492, 0.15717193853510217, 0.4060292417613662, 1.203398384435209, 0.4954407436097807, 0.9770623302985034, 0.3110866424053559, -0.2442768077807311, -0.8044533827117119, -1.7887694446177478, 0.1354413363054018, 1.3740303165673842, -0.30750179804879435, -0.7787017528990251, -0.6356007971019259, -1.461842063485226, -1.2843902047268385, -2.3543191924503115, -0.21956979877301308, -1.1516194768414993, -2.12429758729862, -1.1273295522519953, -0.4976818471868484, -0.33200954882484307, 0.8887471303086714, -0.39334734982892305, -1.0742176805960788, -1.1332779919826572, 1.1420597376289576, -1.2138232301722023, -1.3541143757329037, 0.24152468768117247, -0.2415453007937148, -0.4284977379413404, 0.047006248893407016, -0.07867426923761829, 0.47164359806434397, 1.7929540153526204, 0.7590502330064307, -1.18986368165288, -0.7955945229316455, -2.108928808462399, 0.37522635708137564, -1.1957216622624465, -0.035114894613811856, -1.3787029325464513, -0.6146500510465471, -0.5568760118373229, -1.2848975608521078, 0.34382151847755793, -0.3559027441165692, -2.876644538832068, -0.8790673640982173, -0.48315259068984484, 0.1342622182534616, -1.649512318934167, 0.24748110297114598, -0.2662410410814506, -1.405211179758195, 1.3813455015873886, -2.156465649118503, 0.4500023947406196, 1.1222327751640557, 0.6051210668947133, 0.42123725930172895, -0.7005396088207909, -1.8588401130842929, -1.5842217442715976, -0.5826055624235863, -0.16326561167125117, -1.0891359722563523, 0.2376157180041158, -0.867189016280041, -0.9031389068504118, 0.40050690681515544, -0.8407073198551247, -2.140967882860196, -1.4874896539689806, -1.3212902920170675, 1.2313820493710763, -0.2945593540884252, 0.24530851333856468, 0.844161111249094, 0.8776674597776094, 0.15508242486013699, -0.1626110474015507, 0.08537443866173826, 0.4263204207676889, 2.0068717583627524, -0.6666721615061055, -0.7918614187531148, -0.4574442535798026, 0.43635774557087476, 0.5329987872088785, -0.6129430816980862, -1.0103974078429885, -1.328307506578212, 0.013100994811739576, 0.1453852798422512, 0.7468122548475976, -0.5499172225013153, 0.1977224760758277, 0.0647739547736185, -1.0111964285218287, 0.4474772683031216, 2.184739403743884, -1.3467282019968096, -0.8670532925110669, -0.04102234952943975, -1.1777866643291817, 1.4539391021077623, -1.0141707435524663, 0.9084250513824896, -0.8634773488281896, -0.04351156300685748, -1.01900331172945, 1.1161187842266527, -0.28666662117658165, -0.6126246265138457, 1.5594383483256993, -0.31328400496121267, -1.2963852800325806, -0.46667824266616575, -2.2110729010077237, 1.1978858764182767, -0.5756676364042073, -0.5723056452031587, 0.6008862019052832, -1.8928679597835085, 0.7476975144081865, -1.8257575817617069, -0.5175676371412073, 0.10539927034188652, -0.18848620895919824, 1.299567415951892, 0.9668255248755171, 1.2447181866909116, 0.18072063417052783, 0.7489206777929488, 1.176125428670336, 0.7168891913411785, 1.499203008610031, -0.0875365293926433, 0.5080098879281058, -0.918644301853031, 0.45440234965851134, 1.1901177629993243, -0.2017786643454657, 0.8798669006285897, 0.40144897860904305, -1.0138968827507817, -1.3928718770692559, -0.1733468593257174, -0.44651460676550725, 0.12577734870821197, 0.15438665922349926, 0.7127173194207097, 0.39781620322828654, 0.6793916055302736, 0.7359619084207984, -0.8085137940909812, -0.46768610616003353, 1.7175277063180676, -0.7177863509393488, 1.362352710747976, -0.46442467179904867, -0.5763708953948022, 1.505624269163806, 0.4162771852381804, 0.3438438873424902, -0.7808464069330506, -0.2941601163510685, -0.6712971986977099, -0.3946162715749678, 0.24982222779355537, -0.39597590314691516, -0.3275872135665067, 1.1497270512827478, -0.17449219683271194, -0.7149383502569737, -0.30254057410314644, 0.49315031579684954, 0.14174619233806174, 1.7962895025987098, 1.8802690197441558, 0.15251743882821028, 0.48056138820979344, -0.032816607065634565, 0.7687578623164384, -1.5832256474094684, -0.08817731611522098, -0.16303220800849963, -0.9390870146471444, 1.362381167674862, -1.2879903101361287, 0.17209154808627233, 1.3057964130746198, 2.1041931641437444, 2.1578692668413066, -0.42759908173418104, 0.5284323708481053, 0.48707902579284584, -0.9498561751431905, 1.4186145792474134, 0.7027745711946396, 1.0000505345631332, 0.4931103395377419, -0.6797672536070412, 0.5020432719444528, 0.14262970116205947, 1.0352960672356657, 0.34172667103836085, 0.03768700264818739, -0.3131809789492137, 0.5551282191520052, 0.10225218305439895, 1.4254235941270679, 0.46011841209877696, 0.9416273970676363, -0.23946365054703878, -1.9403275584334803, 0.4049049895909751, 1.5639638541143817, -2.1404690245410665, -0.732694457777042, -0.31388484105568165, 1.1618292165940092, 0.9885919163776193, -0.9497827268368875, -0.12532690507426616, 0.719210385014838, -1.0743839177911119, 0.4756798942198661, 0.39417620460910774, 0.5358423736323917, 0.023304691144336864, 3.417838384420346, 0.7606155771588985, 1.9144692727909325, -0.25369298931189393, 1.0499118686251574, -1.1616392122010628, 2.486851492949375, 0.1379459880223614, 0.6461267074200462, 1.6009289096595594, 0.6613900665205135, 0.025148126836147998, -0.3567827628808219, -1.6057587364331642, 0.32851085511908756, 0.7685700442434896, 0.337407144454468, -1.2933398532315201, 1.3632298583016622, 1.0316031648140809, -0.22798983655279031, 1.2806204907726648, 0.2117578369082617, 1.3047934299516228, -0.9832474269614222, 1.9403589630221298, -0.34435199399297084, 2.4010230717728085, 0.46330328367339335, 0.29425326034177507, 0.9483317796129667, 0.3057435020549322, 1.8653043770258388, 0.2980022396511249, -0.018938837373367056, -0.6798474518481177, 0.17847455415037988, 0.38469471469102773, -0.18780071952182467, 0.17765257166061005, -0.8212984321508724, -1.4838791229628494, -0.21223208875751506, -2.4239700500835113, -2.009490022409161, -0.008142788862061311, 0.7357316724555961, -0.2825573051931923, 1.0231119657112293, 0.9147640871732435, 1.2523622716523695, -0.27477586038160134, 0.07375833742366629, -1.1822011757850595, 1.2357996969249934, -0.07339971467438594, -0.15346592611248738, 1.8255867687236664, 0.4845677612211901, 0.8767838142372221, -1.7691213537812733, 0.2708256258039255, -2.0728887185696543, 0.8549094379611188, 0.02906418084725692, 0.4316716732055321, 0.04459846178596096, 0.3264560640428342, -0.38399633867155597, -0.2511880303016839, -0.2958913461899584, 0.722084271836387, 0.4556051637036224, 1.3851595344317074, -0.06364972689801522, 0.24351194038434373, 1.2282971939656857, 0.05227880920200537, 2.6238399393645575, 2.3773378295377317, -0.18424585956550843, 0.655661037663314, -0.6791437423207007, 0.8130416783403702, 2.718244606668871, 1.4029814799801583, 0.6760373063889, -0.2643553760891426, 0.22985610790759553, 1.9780175228813, 0.14272507844243698, 0.2881679585028367, 1.1927405188204157, 1.0420781445341925, 1.4925174368788665, -0.4189540733909721, -0.9908284332974113, 0.9802708875343378, -0.922924569601744, -0.9189445914559374, -0.3406457742410737, 0.2882158784337565, 0.048560739509513846, -1.1635613779217204, -0.05465243887524043, 0.9261091694847946, 1.9594426590436258, -0.521381100878525, -0.23625019995011048, -0.8658843790954256, 1.4508667219681313, -0.3813345765564862, 0.7266497064168487, -0.3161425971890165, -0.5609260579496503, -0.16891437403652804, -2.038768550592227, 0.015146291750624083, -0.9884865588723726, 0.1890513495367415, 1.0915724516850773, 1.398185192090302, -0.2381185490053365, -0.21442388282511832, -1.5727472270975338, 0.018080559622803756, -0.8108122578867245, 0.25958637089232967, 0.8452022697792068, 0.051072912038563144, -1.9304514827822317, 0.3161725305618709, -0.8908093633657564, 0.5200702648497487, 0.7926042393628567, 0.4532481304049557, -0.3661645339462024, 0.22753071827960442, 1.374546356929155, -0.06954409867586127, 0.7482070030868694, 0.44738838609912723, 0.1708183178897875, 0.9915571255173797, -0.5578659015787384, -0.9167270543376229, 1.8111493560540517, 2.904589131507077, -0.01614629898820837, 0.022946602863531056, 0.14366968624971005, -0.9648452693241361, 0.5968353466440819, 0.6373134165167025, 1.4174055932791383, -0.4866092931276404, -0.48684270956023296, 0.9410715709697531, 0.89088771931313, -0.2099116675085521, 1.4810821677950279, -2.460592645012842, 0.15772996453580995, 0.1033494108066065, 1.3009948717999595, -1.5976102123398344, -1.4556159416013623, -0.6026075876088163, -0.6969934876509405, -1.6253543310885727, -1.737650555229126, -0.5066800470473715, -0.5321733582266078, 0.7496179100114648, -0.8781629164947945, -1.5806928542744256, 0.36347212118917743, -0.026343737203084895, -0.19582256247610175, 1.1314832091349447, -1.2116421922839995, -1.1714924904047217, -0.7016180512991941, -0.047311138164146706, -0.9663122807824787, 0.7979999147216015, 0.11402385311352416, -0.6236991869199645, -0.37409537475113375, -2.59868075090717, 0.767246250534588, -1.1970931724234872, -1.8559123226022327, 1.9191758466415598, -0.7359024608965871, -0.5449680174478543, -0.605006743014999, -1.6994231451598099, -0.8140159712517805, -0.32279168517871554, -1.7186674376019622, -0.2169182340426824, 0.11347318284555229, -0.4215238870641942, -1.3675184398535538, 0.18422173411063955, 0.44005798710405664, -1.2446054910747653, 0.7488594783416447, 0.4198812173781076, -1.0014141689034375, -0.7324387744263284, 0.7425068799612553, -0.3595941266064748, -1.1445114566852288, 0.6484211039249849, -1.3928216109080775, 2.7560207272101858, -0.021355666933027442, -0.15299149577048982, -0.265748947019824, -0.6113278746001249, 0.26127382527461857, 0.45432140349482425, -0.17223788335223528, -1.1684845017260443, -1.046006420190699, -2.0125215833182453, -0.6912543956354401, -0.7809561058430892, -0.0459934006466912, -1.825563954112233, -0.027000118994352357, -0.904004337441515, -0.8524009411398791, -1.153760247625524, -0.06391124854541526, 0.5590022999364646, -0.8587314759294814, -0.40988952676278584, -1.5012196866509468, -0.6981221516297828, -0.40850217424303104, 0.0336166003791867, -0.7589841483220775, -1.9375214551097353, 1.3434120075472278, -0.07131573113207448, 0.6051388100485061, -0.4645348188303018, -1.3868279650140574, -2.6864820170391672, -0.5312889373851761, -0.7364796239096888, -0.9306901581937693, -0.2790934312752382, -1.169492747089921, -0.2935803816389806, -1.0609508475275466, -0.780296121828851, -0.5620732032917433, -2.427055444459812, 2.114927869556078, -1.5193094084478302, -0.5458185723254484, -0.2799244185944359, -0.8797118341806743, -0.16942581875658178, 0.9010100506102356, 0.5415321586338682, -0.8108524869113168, -0.010206936195668447, -0.6186512783673299, -0.11747497812454744, 1.0154065339288438, -1.1981757271224545, -0.004506927605827224, 0.20188857562005394, -1.0865471986166013, -0.6109860550528766, -0.23931702314878428, -0.3047376392065997, -0.32964167219809004, 0.5140506550804491, -1.5447690115063941, -1.5197166828624422, 0.0559225477035165, -0.2989076707364268, -2.2630387074570812, -1.0588859204729375, 0.09606464170608862, -0.9773155561613298, -0.7046429589674329, 1.2315168665452463, -1.2837446620317348, -1.5372554324892853, 0.08511370523719994, -0.19494536393592868, 0.049830176862401106, -1.399235559137804, 1.3388945501061569, -1.1459318365503388, 1.9967251915625237, -0.37143724723242894, 0.10123578990043106, -1.4092274003069316, -1.140568531200185, -1.8173808247897454, -0.5698464105674317, 0.4534448752373985, -0.14811048273822716, -1.3807351396933556, 1.026130259617824, -0.5931873861720419, -2.5328016626112615, 1.1243851019941713, 0.5793456538961939, -0.5841367743057742, -0.9308406714898778, -1.6894602854328438, 0.541667793752245, 1.7766852223274079, 1.3177299818316086, 0.6589543671156856, -0.4311289037465865, -0.3369354109399931, -0.01924923377005389, -0.20475504150732915, 0.49018592319662707, 0.5398579442286997, -0.8604186449061741, 2.937823899324125, 0.475392699581198, -0.6247929720683117, -0.641299368457532, 1.695402982605607, -0.7740950514941496, 0.033499299686646083, 0.07302623644006798, 0.034362554395296584, -1.76864235226607, -0.8852634607984373, -0.6870480641744965, -0.14340815868556886, -0.9182444507169389, 1.6083477024198138, -0.5586804672454375, -1.3987982276411266, 0.73224171701391, -1.8676371699986571, 0.11345133728652385, 0.41218174673172514, -0.8510958320389841, -0.7173111742243516, 0.24037580682745746, -0.41781045586300025, -0.21280372856689997, 1.5225624660999908, 0.3838102254459393, -0.942484990529053, 0.8511681535654583, -0.35291045132855114, 0.34523470464088696, 1.398758526173201, -0.02258905081841164, -0.287478491588868, -0.7229110808915914, 0.21800351117416733, 0.32906411355416243, 1.4529386810926863, -0.6580940664317543, 0.05447416333443681, -1.5887542373462815, 0.8804354757762247, -1.0430058168937912, -0.4035422143443087, 0.5923075146907838, -1.9451227587240802, -0.30577461823452773, -0.44194637932341113, -1.07475838119999, -0.19246871247826172, -1.247260620834629, -0.6486043471831807, -0.5917054565911829, 0.005394216486737041, 0.042261851767921736, 0.3648435906231198, 0.630961627027591, -0.10546366458144377, 0.0724962406565119, 0.11505305670832754, -1.0363575833424696, -1.2023153997199862, 0.41071689280707957, -0.09467632899728864, -0.8554706802098226, 0.24375203490116276, 0.4099732173919946, 1.6329788321136645, -1.1494653917423252, -0.45724634609657266, 0.6557523286738289, 0.5880596838708204, -0.16541923040525133, 0.5971625062389081, -0.6741297809640638, -0.9128821335519194, 0.3419999292234946, 0.6767935196040015, 0.9096054582276373, 0.03882357161884963, 0.16837379671791228, -0.6804982511794386, -1.3221070782129907, 1.859931438542477, -0.9737760693249022, 0.5592533319590726, -2.1720792609564024, -0.18867456099272428, -1.286200988643721, 1.1353868259235314, 0.19236268988146407, -0.2436950173237567, 0.9198452934176764, 0.41045293297049723, 0.2776399381523924, 1.3732628762490104, 0.7188165389598917, -1.7775266977578126, -0.2961585104586886, -1.257702868799354, 1.013648595071414, 0.5223799052533261, -0.4146341000050787, 0.4177382962239937, -0.5388167018349911, -1.499253077178122, -0.25077574455022084, -0.11454109526416013], [0.9194850015358145, -2.252990455334501, -0.728406791782602, 0.5363966113290035, -0.5585420076799295, 0.11628490147284269, 0.765133483033697, 0.3196451513506929, 2.2453481356563043, 1.0986300484361422, -1.8838051379612615, 0.8409093838838199, -0.18219770726019366, -0.9908281665011587, 1.2025764419407312, -0.47934525485726653, -0.5484782724367839, 1.0959843010875436, -0.35152967914433136, 0.8369916600909338, 1.1056711489838393, 0.35721831613045846, -0.49579783052185533, -0.055979174417067595, 1.4230438165983925, -0.8101698587707152, 1.98303705720423, -0.6401537300707765, -2.0704208361010186, 0.3368630587854833, -0.5938026740479856, 1.362759033900493, 0.1063960636472684, 1.3532680011312146, 0.5424127493450375, 0.21279628271435425, -0.7903409615330629, 1.9813225895875122, -0.08120968210769818, 0.36729849806256054, 0.7592452621073252, -0.7365994105358534, 1.1016468770119396, 0.2717556155361065, -2.4401269199161377, 1.0343354787315875, -1.6465410727409289, -1.7287262044284786, -2.1582930033556007, -0.12780969551053684, -1.284578805631463, 0.4192544894849326, -0.8448861754127152, -0.4861091048008769, 0.0015736550939120105, -1.583740810114986, -0.06492513626781948, 0.9130314230134906, -1.7590314646031615, -1.0775529063046976, 0.5418545916878388, 0.4173442690178342, 1.5623156795758895, 0.08467677238303255, 1.511856947724664, 1.405065663749365, 1.703369893222628, 0.9822743936137999, -0.6724110850433445, 0.30153801501859356, -0.8508231782720987, -0.1904605836917741, 0.9781045441859659, -0.011893709565571378, 0.6210286320022496, 0.3693362154576632, 3.045471992402203, -1.3744827003927333, 0.24119626886729423, -0.2021978992295594, -1.664788514568944, 0.4602766060898856, 0.06795262124509142, 0.07493036262037911, 0.6591463355607187, -1.6654973478427884, -2.3262359435400595, 1.5593900710778195, 1.2836387441331667, 1.944023483068567, -0.6633038203531959, 0.07920829402173232, 0.8655719010970756, -0.4141664624698505, -1.684539286617225, 0.504834643854773, 0.01925774149859617, 0.4423508690630061, 1.8894151685946052, 2.5177597622812256, -1.0293734486636947, 0.42377758638873886, -1.312314064009508, -0.0858208189733182, -1.979217103635513, -0.5685632111140453, 1.0715671005032388, -0.46069196353455966, -1.320993064080553, 0.7722761282710537, 1.9083459342044475, -0.3670942425317819, 0.7019590181464119, 2.1539582183086563, -0.2725377667612417, 0.06627479844375317, -0.7769161708981505, -0.5356183226558, -1.42315066267015, 0.13139138362370345, -0.37664163464012834, 1.0886682764132727, -1.856649822444891, 1.2785434760397447, 1.2095500588679677, -1.2995578866849973, 0.3267141306240106, 0.25045614326274873, -1.256549038070239, 0.5924790011769916, 2.092542499737317, -1.29730761232834, -0.27232187455760204, 0.328188395324453, -0.946908547562994, -0.2772931219501425, -0.28092594803629134, 0.10946692987050585, -0.9719978015714761, 0.27136194784198475, 0.03920717296572783, 0.32900374549889744, -0.2989900727426583, -1.347778495413962, 0.771798650109973, 2.3103680752417204, -0.3326638136753398, -0.6784908405130746, -0.698792385162039, -1.2246487276748177, -0.20517905302179412, -0.44777084789636923, 0.9597222633020384, 0.4385565758368651, 0.6463179114381927, 1.5541130745390712, 0.39880110065858465, 0.603950654998246, 0.17256826778922849, -0.53729589931871, -0.07240623646420245, -0.4779558136741041, -0.5560400349767443, -0.43998096857136293, 0.49737185365881387, -0.5074756918842438, -1.5424434653898873, -0.6824551497295692, 0.0243140979630247, 0.8607735968620909, 0.4534514167438464, -0.10440900428182813, 0.3616397770339689, 1.574213152345657, 0.8507264577582576, 0.10825287838076317, -0.3642131732285296, -0.40658235925063113, 0.9793445414255686, -1.0617078652675012, 1.0421820939026678, -0.14116168164297596, 1.7061708487856806, 0.5055483290699795, -0.6209115424333893, 0.28561580537022735, 0.12657734339713522, -1.2609082717144684, 2.0369396303175935, 0.5495561008525136, -0.2569581562297188, 1.5500498933055282, -0.29167110982156924, 0.06862535815095783, 1.2773225888115844, 1.4475723484409426, 1.094563034442372, -0.01637139985106331, 1.4880954672699502, -1.1860675749779233, -0.22885852997990547, 1.1672163114772374, -0.06871554890486517, 0.16664871717173635, -0.6211939663520079, -0.784500200957225, -0.20398538701623695, -0.41933097636015065, -1.6047113625431273, 0.2526430978297147, -0.8552987952214914, 2.7838375717260706, 0.8342227640915073, 1.1753582472826274, 0.5116276701454332, 1.1566721183150106, -0.41023565136544626, -1.209749109956561, 1.4125623248864714, 0.8521363926478183, -0.760456057804344, -0.6440324601732945, 1.0353378999171545, -1.6805327256641276, 0.3023460533422973, 0.3510261358745239, -0.05032471389682921, 1.0008135109836402, -0.06535549459656091, -1.2246358784906188, 1.235595017565345, -0.019950037235033063, 1.1041322653958612, 0.24044204885506507, -1.1530556087230737, 0.3147745890902854, 0.19756960393641906, -1.0491671177611888, 0.03108840375411669, 1.9335919409660989, 1.0804218474486746, 1.1805274695771384, -0.4543669457462949, 0.23611676193506534, 0.7193038928900132, -0.42236608855996544, 1.7814874183736233, -0.5598258831196667, 0.38897608206025025, 0.7062692483560986, 0.09356606227202326, -0.29387686345242975, 1.4720457445371156, 0.8445683949707655, 0.39010531738763976, 0.6886415294656044, 0.22982038887854542, -1.7418506790817547, -0.34560160119784034, -0.06548787053532863, -0.1371429592266557, -0.1652830857344485, 0.15659987168401543, 1.0890311224594738, 0.7718250069742911, -0.32103395147622205, -0.13350732534218265, 1.1194260322750995, 1.5176103443660707, 1.5002697608360556, -0.7164467440506865, 1.8372577174072582, 1.610916817906674, -0.6116368674379119, 1.256704918788744, 2.2470738758345017, -1.2046005102896544, 0.4050527951052795, 0.3421023949279099, 0.15248953801194076, -0.2484040535002267, 0.10918118641662845, -1.4533092691881033, -0.882085707192059, -0.18895228728036748, -0.2695186855724739, -1.9472200168624445, 0.733789037760513, 1.2102429904160226, 0.10320414168235371, 1.150054131389995, -0.9482821220520444, 0.3621744976844299, 0.439121996782601, 1.1025162754280955, 0.2412373256462307, 0.8555865180700654, 0.9171027603181819, -0.6182820456689829, -0.2675759428735859, -2.1468143696986997, -0.912897215469179, 0.6027699271920455, -0.2704842285272215, 0.07975943093996543, -0.8839008829283216, 2.031611349362304, -1.2565410399257084, -0.7566110190665531, -1.3608364344034631, 0.7463518206545061, -0.23234985002853753, 1.9286195840598812, -0.08753021370047218, -0.047179322565922076, -0.07544099313959236, -0.6491294059310276, -0.3405892724329727, 0.44941843310246454, -1.8915497725515895, 1.1648023116948378, 1.1308251997933227, 1.0018209149217485, -0.8634141855244821, -1.2231284886860812, -1.3449044611468661, -0.13038741250870797, 0.6789569332739009, 1.1312249474968712, -0.8860094675965371, -0.553294759092414, -0.7244744863452038, 0.8384976393730772, 0.5849529331339848, 0.8477086144375554, 0.5700423453809826, -1.1865262850586902, -1.2459650745748507, 0.6563658308288991, -0.01556129936878994, 1.1167852104065716, -1.4262482347679764, -0.36233472452543697, 0.5002394398880167, -3.1835734372548936, 2.210542788763478, -1.5887204611963603, -0.09238207498189169, 0.29232354212989026, -0.29594234015934145, 1.1348412329591204, 2.127835366840191, -0.2989737317573727, 0.4203413917559843, -0.4484504436189101, 0.4063927900403159, 0.5836841766280921, 0.11402093154299799, -0.877205187746942, 1.0619516427901268, -1.239292026711841, 0.07859916421135486, 0.29985953234509355, 0.5242516434641484, -0.3979337408043426, -0.4096238885650379, 0.37276574660183365, 0.04533797188807208, -0.11039930254568343, -0.5266383546151601, -0.8936096059732569, -1.0531632715028203, -0.8660555373390589, 0.11686374583400827, 1.1541689565296456, 1.7668115321317255, -0.824529179897312, -1.0441549697361876, 0.014547773764738398, 1.0332164917396955, 1.6507884646641307, -0.2900721940650654, 0.029859497230005565, -0.69907148689708, 0.3768561867544511, -1.1284870261306827, -0.919423756844499, -0.4280411927747279, -1.1553511073187883, -0.7665421373317365, 0.33428556039562285, 0.15087465763782512, 0.7785210240717623, 0.03261166693809749, 2.4193650302756193, 0.6480888153902524, -1.7125738998709237, -0.36031260133562193, 1.299150999562288, 0.33436374457454376, -0.6508819225842867, 0.37210095217472533, 0.8798229681781919, 0.6740570752955406, 0.9935040260297991, 0.00991929886629667, 0.012832850107433276, 0.9263346809154311, 0.041258842351780414, -1.9880266256930375, 1.9916578329855894, 1.0523329835384825, -0.465614515325268, -2.658656051973447, 0.30560800644268177, 0.6837285720464715, -0.4320976577700163, 0.2991253422245662, -0.3305299974285954, -0.406918323994765, 3.2113729428957796, 0.6587452829167717, 0.04336649614971599, -0.47141046431959815, -1.4966026517897564, 0.859103018033288, 1.9148492889421385, -0.8697959965684587, 0.7792720874618366, 0.4048566832787649, 0.7093786842841535, -0.411938909207058, 1.6190159219844928, 1.2838586488283512, 0.606900858505216, -1.1228588525110033, -1.1921414710678546, 2.230332974151679, -0.12442628574050957, -0.8390828140557862, 0.16169610125549116, -3.080679907378548, -2.2649635225249276, -1.5924650580297444, -0.06426188791620176, 0.979878006467083, 1.7380973427745852, -0.8323913983419045, -0.3295946232779684, 0.11674038394001794, -0.31298763584291195, 1.4788209305842785, 1.79659257607247, 0.4354208471916134, -1.151250351814594, 0.8354677598702261, 0.3507850301527251, 0.19475660260269234, -0.5358805162252451, -0.6885793886330567, -0.560237923276135, 2.863437544125976, 1.1770408661186087, 1.5500952251262656, 3.02410378258033, -0.6060154484151111, 0.22712370558651873, -0.19388872751909317, -0.37526574929106177, 1.1332788440230368, -0.7539688147143666, -2.0272005555722195, -0.04754818518377114, 2.1380941421192734, -0.04662417320675018, 0.015591529205913031, -1.61728850048059, 0.18291972772493778, -0.9069713605053197, -0.9263248546236809, 0.3246046418587836, -0.2481505841654205, -0.18585213412901921, -0.5824547935607586, 0.08853268939729501, -0.6982510220061681, -0.1663950320084385, 0.5085739666223605, -1.0126848126550623, 0.6951431457596897, 0.1441139840559791, 0.13831794280110363, 0.4915036739387875, 3.378677162775252, 2.6696020325584207, 0.4091228783938135, 1.4735985641858758, -1.051987646858865, -0.09810900147893344, 0.6411294648459986, 0.6952113430689973, -1.1970374855825467, 0.3671794130311635, -0.10190948951544813, -1.1355728456904624, 0.5262210215175748, 0.1953504598155585, -1.0234619245538044, 0.7492098846931304, 0.8148453576077285, -0.20734994546143506, 0.08317569681437534, -0.9114920727965098, -1.3402493891172118, -0.057562586248111315, 0.9484195706969456, -0.40571385356496303, 0.11939790897930815, 0.6097671049882928, -0.6567132329177134, -0.7711887313151663, -0.5727079154953671, 0.7616199459479924, 0.6170403535368263, 0.4242107663348864, -2.4608559309283877, 0.43811930221576645, -0.2007740729196367, -0.44438485861035626, 0.7516904712320949, -0.8999401543848672, 1.0907338054576066, -0.1982722855894582, 0.016908100214173213, -0.5111210456709455, 1.9270139512470457, 0.017715008963908208, -0.8686795199818127, 0.49588134017374463, 0.2367261974986459, 0.9245119067888391, -0.5434707109180512, -0.41945259948880276, -0.1681424587486404, 0.3565882041083514, 0.33017318599585305, 0.22424831627877784, -0.47384846853167395, -1.3710225944614358, 1.341587797377006, 1.7818308269178393, -0.9003329845010515, -1.4471855199942825, 0.09774379664767233, -0.9250985303179563, -1.514801345822788, 1.6995996815614025, -0.09621153380194088, 0.34682660893130773, -0.5609808564398058, 0.39086695906089775, -1.7293022639376636, 0.4459335729072972, 0.07161505234021058, 1.2777181259257697, -0.2368052683156777, 1.0905985587715545, -0.29630343845219576, -0.5210485136175899, -0.6292052121642099, -0.6062427265217442, 0.5094380512375897, -1.8308163184013306, 0.43384321298624723, -0.08105760041895702, 0.06518512319449336, -0.04261766115862373, -0.36848112401662353, 0.606460495533657, -1.382422456961869, -0.09438016647939879, -2.2778950236249558, -0.8106485622437649, -0.6085537161436955, 0.024726465813828355, -0.2271558281087333, 0.2798131876386341, 0.5227253212917999, -1.4314508234641299, 2.6929288840367662, -0.6950736278195845, -0.5529638001655265, 0.9419244730995318, 0.5691739149154382, -1.5738923990601938, 0.5897242620230198, 1.6228967442726352, 0.2684150283890421, -0.6402031887689152, -0.6759386493232572, -0.9201421714613311, 0.7132459317070766, -1.6137871472010388, -0.9257990221618275, 1.2267976612455855, -1.3876140914632784, -0.5042723389808139, 0.1908241111075022, -0.35281730532501204, 0.8769144566514285, -0.4951930493188139, -0.856726764052204, -0.5879214032814705, 0.8726121632061314, 0.08559850396367175, -0.033408264401286435, 0.6170685205695298, -0.3877809153003479, -0.8544224038869378, 0.09591291626460469, -0.18346018949950704, 0.7911032486446011, 0.49887556552606277, -0.2926659773231686, 0.8770881839687635, -1.345703672308421, 0.20793764519223193, 1.0642163746313487, -1.1741234099361635, 0.2308568338781863, 0.5778909417503849, 0.6156289831759677, -1.0806210064328876, 1.1560222187397389, 0.23618827843298304, -2.340971668803551, 0.4442521814575749, 0.17301502632239432, -1.0176637525175019, 0.7916485888653644, -0.3696991452378873, 1.5121166519070006, -1.0521345569668004, 1.3093860207891863, 0.08973073061008303, -1.4560771911868309, -0.49414318986947886, -1.2374435156991939, 1.2625977390920486, 0.4445214020211192, 0.977796538645864, 0.8811297528852097, 0.38500169383384947, -0.48846010708223403, 0.08792500115683799, -0.06146197328694427, -1.193033199318842, 1.8197275943017863, -0.40209382103462493, -0.9852727591744577, 0.09905071868116481, 0.24106839423718265, -0.12265175660603873, -0.10216959262597092, -1.1392743866567787, 1.2598666261583753, -0.3648213803376622, 0.6650906202621634, -0.1863082626133876, -1.2261917623192922, -0.5572151970358896, 0.8737632585228833, -1.624558123063574, 0.1916062589486147, 1.2404348033037356, 0.30669614310106585, -0.6476029012406396, 0.13860406935234387, -1.2723737052481503, 0.5290474433394342, -0.8648703954252175, -0.0911355119991237, 0.4943946681417165, 1.5560592747104556, 0.041560275128423634, -1.1654368021022796, 1.1757138717728282, -2.9613265466878578, -0.6164902514723594, 0.7066107881628139, 0.8303232246283845, -1.110189385796899, -0.5942282005390088, -0.8950580961582346, 0.3370928870020935, -0.3849486654953559, 0.015698058275019643, -0.9431754232216917, 2.5281914459975403, 1.5010761688017207, 1.0755874125951108, 0.09464508371746208, -1.647122366826104, -2.3009203093099004, -0.5111282808662324, 2.5792890562016533, 0.8879530657787604, -1.192176511959249, -1.5489821301052598, 1.2907095052163295, 0.14338864722671937, -0.982119079355952, 0.20307251532083612, 1.1533015477476336, 2.4199384606362946, -1.131480446276585, 2.0747068761350542, 1.0274322500162882, 1.0010393175544186, 2.1022124582678394, -1.8490782245720188, 0.699125209428202, 1.462701376837299, -0.509043458910674, -0.09538411778611892, -0.4655933601211532, 0.5460508812249437, 1.3661640987594903, -0.15880401249787218, 1.454194139363802, -0.5679775663047812, 1.2060440940958412, 0.8337967966354497, -0.9229770631518583, 0.5860854569146787, 0.56773552044705, 0.513919978815165, -0.5394462522912066, -1.494581768232526, -1.031469135965484, 0.7444678406941891, 1.1510207402473813, 0.17457598414993547, -1.4367331077970502, 0.6692871837876018, 0.6066409909797331, 0.8830863563528555, 1.201266042080415, 0.3453184621807433, -0.16877471543745526, 1.1973199997703945, -0.760166867731765, 1.7234348379224738, 0.0242734250088826, 1.7640680245654725, 1.4503156318210775, -0.07996251276575951, -0.869707893176991, 0.2508868416259082, 0.17437888837045093, 0.8124481664023988, -1.307851418645506, -0.6070025986848248, 0.06682968001056577, -0.7938836620774945, -1.5197448816393737, 0.05971899174746248, 1.2566323775004953, -0.22870014536825953, 1.4180829344980728, 0.9044527441444123, -0.3500341154230561, 0.4728029045774442, 1.2092783731012524, 0.17692639042736233, -2.355908422725368, 2.111436476490626, 0.31998247721814765, 1.2472018349762637, -0.11984291994670401, -0.10013927119798899, 0.5713232986326711, 0.05110770299131815, 1.1938589560785395], [1.3135282919873272, -0.803809060855505, 0.5043491942271328, 0.522521286928358, -1.6894243074770623, -0.5398443247790805, 2.171697776677745, -0.31114212169965105, -0.6672804415706782, 0.8216973672387903, -0.062492526210165995, -0.8110400952592413, -0.560526660549398, -1.1926533180363823, 1.3249916480360717, 0.9016850829609294, 0.7742449689449532, -0.2961220889738971, -0.3754097004949614, 1.267097647630714, 2.061057449394555, 1.0199594686681277, -1.4359779742363963, -0.12520667725883433, 0.07358892233436065, -0.7857473659240458, 0.6662591902879141, -1.5792926268547747, 1.7415102783546688, 0.7438141561801859, 1.53765764595231, -0.29943372988093736, 1.9132539006786538, 0.15677142646013115, -0.7012526246982349, 0.6695650403417842, -0.6357000379627883, 1.5447899998099606, -0.6580347325416913, 0.6755002841367682, 1.48968219349408, 1.0071262547883175, -0.28139361333224544, -2.036752603596591, -0.6291788050732553, -0.023417755088081384, 0.061553367518958985, 0.60973118074074, 1.737374664700155, 1.3450501963180799, 1.626281771554604, 0.35816015929670864, 1.0756409888366507, 0.1291148912301558, 1.254627838566534, -2.481065949016, 0.22728617856204636, 0.7447042263818, -0.5150656384641891, -0.30650081249213973, 0.758113858617887, -0.6124562683343496, -1.4315993092897126, -1.2218794820558017, 1.029779934606668, 0.7706571903214668, -0.19515647781859147, 0.25890270858554, -0.005014814066546447, -0.021035988757529673, -2.218920040615953, 1.2792040271578446, 0.10053867802852497, 0.22732314569894727, -2.5235828650380197, -1.4110417935071815, -0.33478318329093637, 0.5799565580481619, -1.2335826589625272, 0.2945075031727757, 0.24832213584821536, -1.3541974667454482, 0.2159982648982666, 0.07927955035038932, 1.7689714745408565, -0.043971693010743954, -0.6117261276547888, 1.0708900874008391, -0.2037532392885153, 0.27744921035079523, -0.010714136501489635, -0.41229627398104185, 0.3383092584668848, -0.4605021362206333, -0.22195622787289077, 0.15520423596836933, 2.440937658680578, 0.12648494900755233, 0.13702682806127658, -0.28502014122320846, -0.26389510854074766, 2.203227439776221, -0.13806428164531617, -1.561461053713021, 1.5518178592325753, -1.2911408425026227, -1.6365575732865796, -0.0027074888724020274, 1.1264715926682753, 1.5720234157855442, 1.014677106135335, 0.5771699411900122, -1.388838934855611, 0.9870446405914987, 1.8180706505544044, 0.14476670626009855, -0.30246998220208077, 0.8689183863241705, -0.658538817222844, -0.07831434053375642, -1.3202925440207438, -0.07043432507631597, -0.383580944887474, 0.08795372915200553, -0.156576833856609, -2.342027001399815, -1.8993294333884614, 1.4167404176967466, -0.2215034297916941, -1.6051256907817186, -1.7180315372535113, -0.8869986070838715, -0.33231003224788913, -1.877911830252187, -0.48293191950640874, 0.6729966349978821, 1.7470189206717903, 