{"layers": [8, 15, 10, 1], "learning_rate": 4.0, "weights": [[[0.22181883045145442, -0.5528264639931832, 1.7611072574996909, -0.7028891205014973, 0.5524849928205118, 0.2279897678274988, -1.3233880138258096, -0.19035374383168993], [-0.894604975886443, -1.4816766197959261, -0.35991704198657254, 2.759313398855286, 0.6419052082147728, 1.184650521410987, -0.18775739058413246, -0.2661249323442498], [0.10560027965233275, -0.4634971649994722, -0.2450711622046224, 0.3406903798876065, 0.5011971425808972, 0.3600414943382838, -2.4856773977372386, 0.4345727117251523], [1.5072996022765794, -1.549992831374056, 2.7871212780735384, 0.21525739900310772, 1.1294245978625705, 0.7420058989857922, -2.544123144192511, -0.6080201116657937], [0.6616071529191563, 0.7626501185175568, 0.9529500041571892, 2.0048664554911424, 0.6851621905037065, 0.46627901323369664, 0.9711000089802722, -0.9332507341708254], [-0.9657888779336339, -0.9449116806545703, -0.3779055207266274, -0.6898366017682479, 0.9989418390478308, -1.7689282711168, 1.5384796446909725, -0.7727491938513499], [-1.8942207904047672, -0.5441757789685625, 0.4443167987412378, -1.0356339755620316, 0.30849619881133566, 0.976439868389682, 0.07643252019976048, 0.08075371211357678], [-0.872231963916186, 0.49060265004621184, -0.9530310461093207, 1.2967595336313713, 0.46539879506812687, 0.5266391534159317, 0.034932170403737535, -1.1209212369269397], [0.158552672711364, -0.3128654242821774, -2.1871212611577366, 0.2429014384122607, 0.6756262760739196, 1.2291285117067527, 0.8695701763667371, -0.6091677162602073], [0.12801015459134069, 0.4555764163377762, 0.7379598386682029, 1.2808906795388206, -0.6802619468840958, 2.511208402586365, -1.7181166017505265, -2.3056947522832094], [-0.27473145295497914, -0.14599148523186953, -1.4871480341036092, -2.040566801681056, 0.8170978559662359, 0.6481190411641575, 1.9457774014040379, -0.47172219944160165], [-1.078826484684888, 0.46434176240982133, 0.4363377811991955, 0.2794837225222213, 0.8141779529585309, -0.16879935378372302, 0.303155753765765, -1.207039506537898], [-0.8681423130644389, 0.9521282887884881, 1.5085641893021406, 0.006973400430858698, 0.24364187595653566, -0.2812681076976588, -0.3946821500898449, 0.2909955777907419], [0.25156804775673325, -0.5147352415122713, -0.7432643923051523, 1.3649517760877006, 0.2917952055247924, -1.0803299432629447, 1.6608612515309606, -0.05703566445817459], [-0.20750524154336022, 1.8097967982812653, 1.102254545672495, 0.7560458020949906, -1.116039590455548, -1.827848322494524, -0.6212875446603761, 0.11498654661215317]], [[-0.669987566666468, 0.6365760592444525, -2.4861188612701723, -1.0921497688462478, 1.2025610504970348, -0.4916768407134424, -0.0028541379373213187, 2.7209867541571446, 1.5640586288489529, 0.7876167033269088, -0.6218426543901049, 0.5553319071315819, -1.498764142094037, 1.658713120278484, -0.9536009728501933], [0.0610172695371614, 0.562791010610498, -1.217279105187462, -1.9192046770629534, 2.615185700447564, 1.7439617752626873, -0.7075838338956087, 0.7286796656638513, -1.7492975165065685, 1.2606756646186488, -1.6699997545716279, 2.496328700751574, -0.42905778228214625, -1.9677415404252934, 0.45511858952184286], [-1.589277300136072, -0.8511602317963846, -1.159362603715327, -1.694658543689903, 1.0196660304459553, -0.20377114008029823, 0.16149179767076954, 0.3406392428346985, 0.9783566774299398, -0.004652344196613044, 1.4712615124972863, 0.26370313497110554, -2.0977529302562776, 1.2744319045162413, -0.7475943224720093], [-1.2071948189786648, 0.525149957941155, 0.5623114034497605, -0.7507972598285098, -0.018892441490942144, -0.1898210213270036, 1.6313751597111794, 1.2037491844257946, 0.978418666503941, 1.041117137365462, 1.4337806605588825, 0.8428716657985571, -0.7314364089779035, -0.289448882136753, 0.16622885469490864], [-0.7386770445479239, 1.434131535655007, -0.7609431797803485, -1.7491823419727992, -0.2506668669688938, -0.19073483741914088, -1.5552898276416454, 0.3338652213154588, 0.26703471730373607, -0.9626497270108354, 1.5920300870780921, 1.6857603279423294, 0.04644275586863628, -1.202259495799632, 0.17254616178019141], [1.8551525591495788, -1.4878098782730178, 1.3952600703284848, 1.2991468898477871, 0.7523726919743979, -2.298992509358426, 0.8965818317522667, 0.023935964277848408, -1.5578992943139176, 0.6569709339635583, -0.3820697194999767, 0.8926166571978313, 0.5129280953374394, -1.0521844029796452, 0.5075167661012362], [2.052461047659418, 0.10169209848341072, 0.947820335473514, 0.0023388639875081135, -1.1894542152414604, 1.8477958156554366, -0.7362074869838373, 0.32442712817609304, -2.2113857840604725, 1.594993721948086, -0.5590951799435433, 0.25201365568660494, 0.8828948884083122, 0.3632641032034068, 0.2207334084668266], [1.356555340008462, 1.557358680949919, -1.357137170978782, -0.22579436382269696, -0.4986365230549521, 0.1464592436005838, -0.6866134663873839, 2.1288717977792824, -1.544719676128752, -0.5189156729935638, -1.8658015044069178, 1.5959200337140713, 0.8611266819665269, 0.39808669516371836, 0.5995326719894424], [-0.8727848893652393, 1.3267864370548714, -0.8023157523405134, 0.5622178959588967, 1.458330794544632, -1.3048178770297245, -0.056766491175200336, 2.0392244497458045, 0.2552866582929625, 0.9159401860951893, -0.3042163934255869, -0.08941202198044919, -0.02397963371436717, -1.2734593453951428, -0.8816869842165881], [-0.05692467294565841, -0.4867446394517095, -0.7646642528084541, -0.08727162522924696, 0.8088605502472064, 0.2610608694718279, 0.666010572247131, 0.019089180012669047, 1.9977117389998846, -0.029515727673106156, 1.113949698670165, 0.3501891914572648, -0.4718645694174636, 0.30310324690524426, 0.30006943946216685]], [[1.111091358767365, -0.8065168592340147, 3.7112698569851728, 0.012182643585138219, 1.4228676618283553, -3.1433697117261903, -2.2963502822079858, -0.13431671446222757, -0.4332302817845364, 0.4498469453199552]]], "biases": [[[0.38863191017632565], [1.058157769301905], [0.38740805531345035], [0.6605944255937908], [2.9523562195456874], [0.09387200282968067], [1.089562955300181], [-1.2764935233157368], [-0.5772302642963004], [0.5303661480018615], [-0.019393593692221482], [0.891265299497483], [-0.41430311681618165], [-1.633757871413095], [-1.9653570923660706]], [[-0.9737324342080523], [-0.815250555793018], [0.43349487443722773], [0.7719016755065526], [0.0605127981153621], [-0.9623468961652523], [-0.3014400257367824], [-1.2420249981667044], [-0.822475246938029], [-0.8917053081379172]], [[-0.03910684541119531]]]}